1798 100
i 0.40308854 -0.1542997 0.13421597 0.032549508 0.09423345 0.08556546 -0.41870224 0.3470149 0.17888981 0.27531564 -0.028176026 0.16733925 -0.13430925 0.35315537 -0.024128659 0.04708153 -0.05951091 -0.19580036 -0.927897 0.33579436 0.020118842 -0.36361673 -0.12355882 -0.42178023 0.00979527 0.34565085 -0.19385625 1.0246065 0.44316545 0.09253662 -0.3274737 -0.015806222 -0.042874373 -0.041025028 0.7625672 0.060282536 0.10783994 -0.07703463 0.17494406 0.607886 0.54635745 0.1706767 -0.7171604 -0.026370361 -0.13133669 0.1469629 0.64201117 0.9779224 0.10032315 -0.2536261 0.59693813 0.13182394 -0.19551896 -0.31671602 0.19006632 -0.0648242 -0.24813098 0.2631619 0.019755628 0.058611933 0.17475663 0.46576235 0.028469471 0.180187 0.15494435 -0.09503525 0.187731 -0.23091948 -0.867243 0.38130993 0.27748227 0.07565977 0.12504917 -0.17793605 0.30316454 0.34189624 -0.0034532128 -0.1365122 -0.45929417 -0.044641096 -0.028092027 0.0071667726 -0.05701686 0.05019888 -0.17662328 -0.046230603 -0.13326387 0.32538614 -0.18490274 0.037968945 0.27367005 0.36040822 0.0018075742 -0.88050604 -0.45324633 0.3213468 -0.25534594 -0.0035364167 -0.0084152 0.18646601
you 0.4231375 -0.14128765 0.14230521 0.00512183 0.10645212 0.109832905 -0.38502327 0.32886508 0.15507275 0.28852096 0.011404573 0.16778986 -0.12926166 0.33280227 -0.034147095 0.013144301 -0.06944293 -0.15418617 -0.891726 0.31856725 0.03003414 -0.34593543 -0.1388561 -0.3497133 0.007547313 0.3047865 -0.18380873 0.9654482 0.40186584 0.09256083 -0.29590717 -0.001105329 0.00027632766 -0.024924735 0.7236009 0.08236767 0.11129796 -0.11202823 0.16478586 0.5500358 0.5116788 0.13537289 -0.66856986 0.00022491426 -0.12854066 0.1696343 0.6241559 0.9194284 0.11348764 -0.2222221 0.54715395 0.11452311 -0.16640794 -0.3127585 0.20676231 -0.051802292 -0.25281832 0.20519076 0.029622652 0.04125414 0.1468592 0.4417737 0.017396899 0.16689166 0.14481308 -0.09251047 0.18543175 -0.21452318 -0.81845194 0.3602576 0.24864376 0.06384003 0.12775092 -0.18162484 0.31131545 0.35152674 -0.007957743 -0.12582314 -0.41436833 -0.03965102 0.008763005 0.007788493 -0.033319063 0.0689867 -0.17434797 -0.06815945 -0.13329507 0.30692956 -0.18867551 0.04018869 0.26965582 0.3335293 0.06077612 -0.76193917 -0.4261195 0.2952294 -0.2364685 -0.0054651326 -0.046523627 0.14228846
to 0.41682905 -0.16280378 0.27176148 0.023045741 0.13996013 0.03432829 -0.42674297 0.349205 0.12593971 0.33580434 -0.06681992 0.10606339 -0.21474646 0.3483213 -0.088051215 -0.070736915 -0.07172076 -0.14250965 -0.98317075 0.29121816 0.048342984 -0.33406112 -0.14475197 -0.2970052 -0.030865835 0.32308275 -0.09165095 1.0095501 0.4238359 0.06475119 -0.29167217 -0.026575543 0.003378081 -0.021160997 0.7426518 0.09433902 0.11817418 -0.118140645 0.21766387 0.5909556 0.4874877 0.113214865 -0.74087405 -0.001207212 -0.115732975 0.21401727 0.6144299 0.9872271 0.14291736 -0.16783333 0.6221331 0.07682022 -0.15102924 -0.37299594 0.24316455 -0.06646543 -0.30142486 0.11848845 0.08569907 0.106691845 0.16404015 0.37010688 0.097437575 0.15931234 0.14398395 -0.06883982 0.22899398 -0.22652997 -0.8663745 0.3497978 0.20658043 0.022828344 0.08745255 -0.18455917 0.3303133 0.38595456 0.061976977 -0.16252787 -0.5061444 -0.03622884 -0.030631822 0.049754467 -0.0905823 0.08949733 -0.1798637 -0.10767948 -0.14662747 0.30006164 -0.15980902 0.05895863 0.30776104 0.2709201 0.06055622 -0.68581325 -0.4058052 0.23612323 -0.25595748 0.03541893 -0.039238952 0.14821747
a 0.4699124 -0.15839848 0.25841734 0.0075144228 0.15220681 0.055913318 -0.45052782 0.36769956 0.15461293 0.3427489 -0.051941324 0.11391639 -0.22968943 0.4028717 -0.100626364 -0.07172404 -0.07680752 -0.15907593 -1.0382111 0.314757 0.062296163 -0.38199657 -0.17297679 -0.32839984 -0.04607554 0.33320722 -0.11936198 1.07145 0.45175487 0.07505684 -0.3060434 -0.032123357 -0.00044028737 -0.034652196 0.81245524 0.0934074 0.14524888 -0.1472697 0.24401422 0.6374219 0.54406774 0.10922437 -0.78596514 -0.003492653 -0.1221543 0.23372388 0.6707647 1.0315387 0.15694539 -0.191579 0.6603687 0.08614613 -0.17218785 -0.40308574 0.27682543 -0.08082126 -0.29904488 0.13242035 0.094560705 0.097909965 0.17299706 0.41310355 0.082921356 0.14573923 0.14372632 -0.06016496 0.22000168 -0.22768936 -0.9060058 0.3549108 0.23004873 0.030898262 0.09966699 -0.19668214 0.3596433 0.40809226 0.057984266 -0.2018781 -0.5640914 -0.029788174 -0.027584456 0.062551685 -0.08802428 0.07214124 -0.20398355 -0.14502513 -0.13306838 0.3363407 -0.18592046 0.069147296 0.33088207 0.29750454 0.0815586 -0.7498627 -0.43237662 0.22791357 -0.29748505 0.027313324 -0.02710133 0.12556326
the 0.4442454 -0.16366507 0.23598638 0.030808214 0.14230463 0.059774216 -0.44867104 0.3733143 0.16937962 0.32145137 -0.049507964 0.12742545 -0.21274127 0.3958635 -0.07847624 -0.053353474 -0.06709745 -0.14905448 -1.0175295 0.3090717 0.045655426 -0.36483642 -0.17093582 -0.31837845 -0.03445414 0.3238663 -0.13640325 1.0628996 0.42802992 0.07792335 -0.30389714 -0.031163821 0.0039096302 -0.03306159 0.7957967 0.088380925 0.12773854 -0.13581294 0.233938 0.6048288 0.5528833 0.11826335 -0.76421064 0.0045922184 -0.10906377 0.20168382 0.661432 1.0016878 0.14894116 -0.19543634 0.6369952 0.086674996 -0.16877787 -0.38063636 0.26221773 -0.07680134 -0.30690315 0.15233384 0.07489303 0.06944262 0.14606972 0.4157186 0.06414105 0.1653997 0.13578376 -0.0698008 0.20743778 -0.23126392 -0.90034896 0.3719921 0.2522876 0.04190832 0.11796967 -0.19410072 0.33191478 0.39966905 0.039598253 -0.18100409 -0.53043115 -0.042001847 -0.0146113075 0.051908247 -0.092393346 0.0578191 -0.18730812 -0.11921427 -0.13242446 0.3270628 -0.17906325 0.06278404 0.30530685 0.30319533 0.07798954 -0.75931185 -0.44199294 0.24250539 -0.29021502 0.016933743 -0.018726695 0.13298917
u 0.42638087 -0.14934756 0.20950055 0.041349277 0.1451613 0.06341522 -0.44748458 0.33050677 0.1757647 0.30003104 -0.041831557 0.10946479 -0.21668889 0.3722886 -0.0700608 -0.03699754 -0.07481488 -0.16101667 -0.9755097 0.31826386 0.057874914 -0.34127933 -0.16267665 -0.3628855 -0.025975538 0.3413594 -0.1623324 1.0449774 0.4429955 0.079587385 -0.3168537 -0.012500218 -0.016075375 -0.040799167 0.80135345 0.088903956 0.14105603 -0.11728161 0.23356256 0.6283016 0.5438955 0.12817875 -0.7376562 -0.012213297 -0.11874394 0.16840671 0.6485779 1.0129547 0.15139127 -0.2177702 0.6599829 0.0962552 -0.18791798 -0.34330302 0.25263616 -0.07116983 -0.30499777 0.19652797 0.08056843 0.06704 0.16843951 0.4532036 0.051724885 0.19230916 0.14296319 -0.09817104 0.19977562 -0.23960926 -0.90023315 0.3813524 0.2586985 0.03879802 0.11329079 -0.16181298 0.34581885 0.39742705 0.051371057 -0.1698828 -0.52831024 -0.028988969 -0.047831684 0.04311389 -0.093723066 0.08903937 -0.17841932 -0.1330714 -0.12896042 0.32088944 -0.17209852 0.075142376 0.28565434 0.30881888 0.040734835 -0.8164051 -0.4362024 0.2529273 -0.2860872 0.05550712 -0.0043101017 0.15478037
and 0.4431212 -0.15517345 0.21203838 0.025632765 0.12826435 0.06745725 -0.443864 0.3596917 0.16959535 0.3163807 -0.04578902 0.13294804 -0.19212651 0.38380268 -0.061168447 -0.030133575 -0.06175111 -0.16864146 -1.0055516 0.3143734 0.0445696 -0.3670872 -0.1566731 -0.3489374 -0.031228568 0.33180806 -0.14078501 1.0597928 0.43332362 0.08480885 -0.305027 -0.026498782 -0.009005326 -0.03699246 0.78600806 0.09095631 0.119336426 -0.12744907 0.21876177 0.6069484 0.55069256 0.13481009 -0.75777817 0.0009234012 -0.11717011 0.20770454 0.660789 1.0130979 0.13809799 -0.20202956 0.6313772 0.09640741 -0.17479041 -0.36871114 0.2426369 -0.069631025 -0.3015241 0.1825258 0.07169161 0.06565707 0.15878642 0.43145195 0.06771354 0.17085515 0.1472041 -0.07427024 0.2108711 -0.22909391 -0.8961609 0.37853774 0.2621486 0.048416782 0.113393396 -0.19300318 0.3346263 0.3869403 0.030567221 -0.1739973 -0.5203381 -0.03725685 -0.017486377 0.042717595 -0.079319485 0.065380014 -0.18696469 -0.10873557 -0.13542067 0.3290936 -0.18050279 0.06077705 0.3061504 0.32583523 0.067524716 -0.7929989 -0.44749337 0.26866028 -0.27191585 0.012868991 -0.018886222 0.14372204
in 0.42043266 -0.14597982 0.2055146 0.022745226 0.12699145 0.06374682 -0.4287394 0.3516643 0.16046833 0.29798192 -0.039497465 0.13081136 -0.1945646 0.368879 -0.06738444 -0.026155785 -0.06396052 -0.16464914 -0.9658496 0.30941224 0.052350555 -0.3674353 -0.1547432 -0.33944866 -0.026065249 0.3253137 -0.13334917 1.0171149 0.42691836 0.08140122 -0.2916189 -0.029119274 -0.01119497 -0.049468473 0.7756048 0.07785987 0.11158322 -0.12113509 0.22291768 0.59041274 0.52730864 0.12607469 -0.73210084 -0.0044643283 -0.118195266 0.18868953 0.6379849 0.97256273 0.13485578 -0.20798934 0.61070186 0.090607285 -0.16966067 -0.33776584 0.23032641 -0.07159891 -0.2656818 0.17762029 0.05901727 0.07078616 0.14825918 0.41256633 0.05716522 0.1623013 0.14838938 -0.07591266 0.20542029 -0.2237719 -0.8751714 0.36446938 0.24515602 0.03586015 0.10874565 -0.18258908 0.32207856 0.36882868 0.046862572 -0.16970526 -0.50563824 -0.03292001 -0.026118789 0.041120365 -0.09012466 0.06840349 -0.183257 -0.107367665 -0.12212215 0.31622222 -0.16634996 0.056189664 0.2935704 0.3093209 0.0409804 -0.76802623 -0.42575997 0.25421482 -0.27278364 0.008917161 -0.007535919 0.13759789
is 0.45941174 -0.16302285 0.23247376 0.0310767 0.14374985 0.04333871 -0.45773125 0.36133042 0.17485271 0.30996704 -0.054653242 0.12515055 -0.22903469 0.4069106 -0.08639777 -0.05322871 -0.07584535 -0.15155917 -1.0228971 0.3098407 0.06703335 -0.37878305 -0.17070673 -0.3366005 -0.047807436 0.330036 -0.13582109 1.0550942 0.43444234 0.06713083 -0.3036913 -0.022437869 0.0019450932 -0.04695359 0.8008103 0.09417244 0.13292292 -0.14952065 0.24270864 0.62652194 0.5465682 0.11054882 -0.7646319 0.0032111 -0.115504526 0.2111282 0.65578914 1.0088739 0.16679285 -0.20234661 0.64751333 0.075319625 -0.17363103 -0.3625837 0.2584713 -0.08227152 -0.298525 0.15800758 0.08294659 0.07292639 0.14061505 0.40780026 0.0793436 0.17626777 0.13257839 -0.08815553 0.2113634 -0.23374711 -0.90902966 0.3783317 0.25890365 0.03141727 0.11906906 -0.17405298 0.33356762 0.40383613 0.057421315 -0.19425686 -0.53110427 -0.045426186 -0.022756146 0.057807125 -0.102676846 0.083339415 -0.17830837 -0.1363496 -0.13412832 0.31163618 -0.18729955 0.07181173 0.31848478 0.29964167 0.06487515 -0.7676084 -0.4266606 0.23201106 -0.29094374 0.031773686 -0.01380254 0.13873132
me 0.41151395 -0.13724397 0.19696541 0.026021486 0.10650019 0.054909833 -0.40319481 0.34413365 0.14696078 0.2891529 -0.042408194 0.12801848 -0.19036438 0.350544 -0.06540559 -0.017253995 -0.0708945 -0.15198615 -0.9275755 0.30654067 0.028258828 -0.34045905 -0.14913584 -0.3531642 -0.008262945 0.3268105 -0.15295312 0.9909293 0.422308 0.0782144 -0.2863073 -0.023506839 -0.00058737845 -0.027453827 0.7634726 0.08876964 0.11450962 -0.10385993 0.20875347 0.5838798 0.50922894 0.116641544 -0.7202759 -0.011271855 -0.11059951 0.17666501 0.62929314 0.9678623 0.12741643 -0.20418048 0.59959525 0.09876652 -0.17208213 -0.3324847 0.22008462 -0.06485888 -0.28002855 0.19378781 0.06888486 0.066485696 0.15866883 0.41383892 0.059594557 0.18132077 0.14514999 -0.08066261 0.19869938 -0.22519507 -0.8449247 0.35639074 0.24014136 0.042714983 0.10971898 -0.17565973 0.32625797 0.3697261 0.031062309 -0.14027491 -0.47875115 -0.038877726 -0.024229584 0.048712354 -0.069445975 0.07765379 -0.18185483 -0.09297128 -0.12523971 0.30862415 -0.17428328 0.058027375 0.26717103 0.30124018 0.044690307 -0.76819354 -0.4208611 0.26643655 -0.2523111 0.026781896 -0.025544576 0.15412654
my 0.45614168 -0.1645781 0.20650959 0.038625985 0.14121409 0.07441337 -0.4721412 0.37144372 0.18207067 0.31834605 -0.046547607 0.14204916 -0.19811662 0.40019488 -0.058968477 -0.032554787 -0.07048335 -0.1733366 -1.0481902 0.3394061 0.05094253 -0.3989254 -0.16044526 -0.3634055 -0.026240893 0.36490923 -0.16261706 1.1210138 0.45701724 0.09621253 -0.32505116 -0.032197855 -0.011410244 -0.041833747 0.84078324 0.08757815 0.13078931 -0.14018862 0.23921476 0.64100814 0.5894642 0.14303987 -0.78239816 -0.005739 -0.12131331 0.19590189 0.7058483 1.0605582 0.15398474 -0.21689396 0.6626866 0.110296465 -0.18954393 -0.3736642 0.25920582 -0.07571429 -0.3124915 0.20779872 0.07650182 0.06501431 0.1648338 0.46279666 0.05939683 0.19215764 0.14893606 -0.085822165 0.21041694 -0.23496446 -0.95075125 0.40491012 0.27815917 0.044150904 0.12755066 -0.19209242 0.349886 0.40328646 0.029655045 -0.18370397 -0.55152524 -0.034800433 -0.029448222 0.041536473 -0.09434325 0.066233136 -0.19969422 -0.13417912 -0.12974773 0.34582773 -0.17930363 0.07110779 0.31359845 0.34619853 0.063998036 -0.8344331 -0.46905172 0.2682621 -0.30385464 0.028650463 -0.0027151415 0.14228323
it 0.41417032 -0.1487404 0.18574068 0.023412287 0.109592415 0.069514565 -0.42126822 0.3413531 0.1711624 0.27886382 -0.040646948 0.12549207 -0.18668436 0.36703908 -0.05729225 -0.023850685 -0.04770774 -0.1591718 -0.9405721 0.30615377 0.04086659 -0.34933457 -0.1558244 -0.34727663 -0.018682793 0.3264908 -0.15563992 0.9986024 0.41380975 0.08069101 -0.29638425 -0.03174841 -0.018352538 -0.022571076 0.76486593 0.084146604 0.117665395 -0.11593677 0.21274383 0.581576 0.52994645 0.1326945 -0.70787585 -0.00094591075 -0.12111581 0.17438926 0.6257289 0.9405852 0.1343393 -0.21201238 0.5981198 0.10951862 -0.18261944 -0.3287021 0.22700821 -0.07036001 -0.28512967 0.19430223 0.053526938 0.05901553 0.14478867 0.4264825 0.036848895 0.17241102 0.14221114 -0.07299973 0.19594681 -0.22388205 -0.845964 0.37159112 0.2512433 0.03962787 0.12056877 -0.16760075 0.3164805 0.36767188 0.024498604 -0.16523428 -0.4770075 -0.032995466 -0.022880467 0.034387276 -0.07864247 0.062329777 -0.16842791 -0.09763219 -0.12362697 0.3166852 -0.1679586 0.053835265 0.28238598 0.32853088 0.04488695 -0.7812477 -0.42444855 0.25941283 -0.26474696 0.012602075 -0.012993143 0.14603107
for 0.4695566 -0.1732174 0.2869069 0.0251387 0.14917266 0.02989179 -0.4621084 0.38811383 0.15449376 0.35389417 -0.08234634 0.11576419 -0.24948797 0.40347758 -0.103218816 -0.060207628 -0.0730962 -0.14973341 -1.0762148 0.30633533 0.057161983 -0.38089353 -0.16227558 -0.32508138 -0.023926148 0.34989032 -0.11406477 1.108858 0.4733467 0.07273172 -0.30844375 -0.03911568 0.0027786167 -0.047169838 0.8256341 0.09571928 0.12123028 -0.13711539 0.26243863 0.6386302 0.539313 0.1043233 -0.8114317 0.0123679815 -0.11683286 0.22789828 0.6915848 1.0693219 0.16063288 -0.17828876 0.6776459 0.08295523 -0.16541418 -0.40369302 0.26255596 -0.09718952 -0.3086764 0.14175451 0.10052986 0.10780549 0.16270341 0.3958287 0.10147978 0.17106512 0.15450627 -0.07200965 0.22986129 -0.25146678 -0.94088745 0.38756555 0.24228214 0.019679332 0.10102722 -0.19912659 0.35262397 0.41477555 0.062213667 -0.18758655 -0.57092047 -0.045302205 -0.045566507 0.06477092 -0.11359661 0.07420826 -0.19185024 -0.13681541 -0.14395484 0.32595804 -0.17657898 0.07340169 0.3313088 0.29706374 0.07886736 -0.7581629 -0.459798 0.24482824 -0.29100817 0.02088803 -0.027403075 0.14292102
your 0.49080703 -0.18247223 0.28853393 0.020627482 0.16339202 0.043261666 -0.47182027 0.39699095 0.13939573 0.37313923 -0.070147865 0.12290195 -0.23697832 0.40243992 -0.099312365 -0.07486171 -0.07739248 -0.15986818 -1.1074163 0.30949005 0.049225923 -0.39803708 -0.17264155 -0.3275638 -0.025325272 0.3619762 -0.11679933 1.1431696 0.48855907 0.06640615 -0.3146543 -0.025470732 0.014888512 -0.037907574 0.8403699 0.0874082 0.13063057 -0.15327102 0.26715592 0.65361035 0.5481993 0.103875555 -0.8325158 0.003220022 -0.11714927 0.24227662 0.7151351 1.0921435 0.1724197 -0.17524326 0.68600696 0.09172308 -0.16707198 -0.42505062 0.27191013 -0.09414321 -0.32157376 0.12868395 0.10396911 0.11103144 0.16088694 0.4074986 0.11029162 0.1654559 0.15996687 -0.07594975 0.24176843 -0.25566906 -0.96547055 0.3833358 0.24136378 0.032684334 0.10970969 -0.21615817 0.35465854 0.4268666 0.064537935 -0.18925518 -0.56719 -0.05689521 -0.0388834 0.062443856 -0.10249147 0.06853572 -0.20776114 -0.15439363 -0.1524791 0.3307327 -0.19631478 0.077642046 0.3393023 0.29069337 0.09055877 -0.7522121 -0.47565514 0.23772058 -0.29681844 0.018211214 -0.037094537 0.13564631
of 0.4765489 -0.17027889 0.24766122 0.033420306 0.1428883 0.059514545 -0.48694596 0.3769629 0.18985039 0.32872176 -0.044055086 0.13270876 -0.22402537 0.4235554 -0.08003579 -0.054510556 -0.059275497 -0.1706414 -1.0771389 0.33786163 0.054546867 -0.39582634 -0.17743818 -0.3571641 -0.046442814 0.35169408 -0.14776562 1.1225184 0.4704194 0.08411903 -0.3209916 -0.04031768 -0.0132879475 -0.035892617 0.8486256 0.093865305 0.13379553 -0.14897755 0.24311201 0.6543708 0.5842657 0.13373512 -0.8035407 -0.0008843807 -0.112480335 0.21773951 0.70210105 1.0666261 0.1707984 -0.21683232 0.67857134 0.09855784 -0.18534483 -0.3806227 0.2680376 -0.08936296 -0.30950305 0.16811532 0.08543348 0.07103097 0.15714097 0.45144287 0.06728009 0.18824889 0.15455805 -0.08592906 0.23200342 -0.2427333 -0.96160275 0.3997688 0.26761404 0.04315868 0.11565929 -0.18464041 0.35860515 0.42190588 0.05150634 -0.19809622 -0.5639057 -0.03631197 -0.021651272 0.05245528 -0.10765653 0.07439115 -0.20113479 -0.13611755 -0.13200717 0.34314865 -0.19390596 0.06819027 0.32862386 0.33555838 0.073316395 -0.8251231 -0.456796 0.26285583 -0.31090534 0.023227807 -0.012515957 0.14872031
call 0.42092037 -0.1530336 0.33368292 -0.00047371676 0.14816692 -0.01875058 -0.37089354 0.34258056 0.07953614 0.36861342 -0.1257176 0.06748655 -0.2720201 0.33075082 -0.11730292 -0.10984048 -0.09571579 -0.11472568 -0.9835356 0.26986516 0.01823408 -0.3449977 -0.13401812 -0.27052304 0.0054490524 0.3278697 -0.026340844 0.98799706 0.44601867 0.033138 -0.25654158 -0.035304036 0.015461154 -0.05395278 0.73142153 0.053396814 0.15449046 -0.106863596 0.26810038 0.58846587 0.45533615 0.08839955 -0.80056226 -0.014786209 -0.11643992 0.2278279 0.62267995 1.002216 0.17214051 -0.14169286 0.6469015 0.07091114 -0.15550242 -0.42230317 0.2232973 -0.119234204 -0.27507412 0.086029604 0.11821506 0.16281079 0.14747488 0.32239833 0.11244406 0.13499717 0.16788949 -0.044882122 0.23291388 -0.23218985 -0.8949497 0.31765658 0.16709936 0.0055099805 0.026103988 -0.21055987 0.32280117 0.4092331 0.12385538 -0.15765257 -0.55092 -0.053509165 -0.08512289 0.08535062 -0.10829805 0.08021547 -0.17595036 -0.12618458 -0.17669535 0.28237447 -0.17328891 0.08474275 0.32392284 0.19379234 0.07675134 -0.6362393 -0.42243728 0.21600439 -0.28595486 0.040663097 -0.034728922 0.14448813
s 0.427329 -0.15360619 0.21638611 0.047796693 0.12972191 0.04240657 -0.44053137 0.3471186 0.15657659 0.2877834 -0.052484892 0.11566158 -0.20979168 0.3820552 -0.06832 -0.03333134 -0.05933003 -0.16515851 -0.9635844 0.3053697 0.06421622 -0.3426441 -0.15337215 -0.345313 -0.032185607 0.3214468 -0.12840371 1.022148 0.42551893 0.07836618 -0.27926892 -0.010498219 -0.012987516 -0.037335265 0.77450305 0.08417049 0.10859952 -0.11775855 0.21730389 0.5925726 0.5352465 0.105271205 -0.71558523 -0.0032671373 -0.118114315 0.1862758 0.62381667 0.9627347 0.14196327 -0.19316778 0.60846347 0.09225305 -0.17603557 -0.34392947 0.23604098 -0.07186836 -0.27795476 0.17383353 0.063164376 0.05242847 0.13266793 0.4010059 0.05643195 0.1672942 0.13269356 -0.0843499 0.2100324 -0.23041336 -0.86207074 0.37319878 0.24796899 0.046225056 0.11061431 -0.16671729 0.3246183 0.37188113 0.05020413 -0.17333184 -0.49903077 -0.046700608 -0.025007589 0.055277567 -0.09658181 0.07250671 -0.167686 -0.10747404 -0.12954904 0.297343 -0.1777039 0.06728715 0.2889402 0.29898372 0.054752905 -0.7716291 -0.4201866 0.24382359 -0.27069613 0.020171523 -0.014685424 0.13238198
that 0.42261672 -0.15333214 0.1858484 0.023314917 0.11692368 0.08342035 -0.4203993 0.34837812 0.1703969 0.2856504 -0.031881586 0.13802305 -0.1790507 0.37274042 -0.05248046 -0.021332113 -0.04777342 -0.16374072 -0.9560274 0.30828565 0.05469757 -0.3507956 -0.15723164 -0.35165158 -0.02177918 0.3260015 -0.1634453 1.0136365 0.4161534 0.07499524 -0.3011194 -0.018327795 -0.011495393 -0.028357383 0.7753809 0.08553044 0.12352627 -0.113525815 0.20328271 0.5886945 0.5394307 0.12354211 -0.7238311 -0.012905377 -0.11558839 0.1902095 0.63449866 0.95877975 0.14310695 -0.21077584 0.59717673 0.10201218 -0.17420036 -0.3383999 0.2241026 -0.06922957 -0.28160945 0.20081201 0.05683119 0.053101655 0.14916627 0.43805033 0.03622482 0.17349915 0.14641042 -0.07747217 0.20316473 -0.2182449 -0.8590868 0.35983574 0.25670224 0.052082054 0.1258617 -0.17916863 0.32871503 0.3592806 0.019254545 -0.15332873 -0.49534053 -0.035704143 -0.016599186 0.038537312 -0.07391336 0.068877116 -0.1777454 -0.09174449 -0.1235039 0.31684378 -0.17903847 0.050935697 0.29279274 0.33331904 0.052833345 -0.788301 -0.43466935 0.25819802 -0.27163783 -0.00033620253 -0.014945819 0.14377646
have 0.42044657 -0.13745064 0.1847117 0.016165327 0.10707047 0.06195689 -0.3969537 0.3237407 0.1468093 0.28320688 -0.027485235 0.11336625 -0.1830201 0.3499354 -0.06383934 -0.033865884 -0.061846472 -0.1530144 -0.91452706 0.2850903 0.05068252 -0.3407236 -0.14202516 -0.32423723 -0.017946376 0.29595518 -0.12946431 0.94950145 0.39711168 0.06435104 -0.27493095 -0.03518313 -0.0015880855 -0.030862784 0.72478366 0.08935068 0.11296123 -0.13604572 0.20932889 0.5672009 0.47928712 0.11862374 -0.6937027 -0.0146826925 -0.11750769 0.19749822 0.60416627 0.9142432 0.14290915 -0.19865946 0.5710477 0.100494705 -0.16065373 -0.327757 0.22123967 -0.061095126 -0.25433353 0.1619959 0.066799186 0.059732784 0.15544543 0.38888413 0.049320664 0.12999772 0.14025985 -0.055979997 0.20659696 -0.19375989 -0.80043674 0.33292612 0.21892552 0.05376884 0.11357226 -0.17320415 0.3257924 0.33832505 0.031234793 -0.15221006 -0.4738472 -0.035127144 -0.0154516725 0.034682423 -0.06479543 0.061355673 -0.18075126 -0.10147945 -0.12774594 0.30339712 -0.18006706 0.062125742 0.29102454 0.29821327 0.054451644 -0.704652 -0.4125041 0.22514483 -0.24609075 -0.00056818477 -0.02455546 0.12151056
on 0.4575913 -0.16929461 0.28151345 0.029348683 0.1591363 0.029344346 -0.46782953 0.38581184 0.14541094 0.34463122 -0.07605004 0.11303482 -0.2501305 0.4032811 -0.10321996 -0.06678942 -0.07725521 -0.15273249 -1.0766046 0.31962365 0.039187238 -0.37633276 -0.15513596 -0.33015203 -0.019240545 0.36058667 -0.10995712 1.1197654 0.47041854 0.07306994 -0.31983066 -0.033056587 -0.010970446 -0.046626408 0.82783765 0.08077867 0.12798843 -0.14580071 0.2630822 0.65096086 0.5478631 0.12166672 -0.81664383 -0.0006023429 -0.12252606 0.22141016 0.68286157 1.0779095 0.16087836 -0.18450515 0.6863858 0.07962345 -0.17772256 -0.39623302 0.26735374 -0.0899418 -0.31529957 0.14140895 0.09028524 0.10633703 0.15939865 0.4141386 0.09359283 0.1791731 0.15487461 -0.06857622 0.22880235 -0.24856505 -0.9456343 0.3819616 0.24087583 0.025537608 0.09660594 -0.20568432 0.34226954 0.41876978 0.06659431 -0.18523687 -0.5647029 -0.042027604 -0.0496883 0.05720273 -0.11195826 0.075126804 -0.20213902 -0.1349241 -0.15357311 0.32820526 -0.18307613 0.07602001 0.32436264 0.29957813 0.06402793 -0.77472466 -0.46869874 0.25365046 -0.2965758 0.02834028 -0.011184196 0.14313497
now 0.41779324 -0.16277057 0.29478765 0.027744751 0.14845046 0.0007274614 -0.4379045 0.3751243 0.12723044 0.33705926 -0.10587996 0.09482523 -0.25763556 0.3541958 -0.10603908 -0.069810525 -0.078569405 -0.13972355 -1.0253457 0.27790582 0.029243354 -0.34583518 -0.1356651 -0.29807118 -0.02209729 0.3324776 -0.07204961 1.0503615 0.44762075 0.053165447 -0.30439505 -0.040474586 -0.0077335048 -0.04830204 0.7813078 0.08012961 0.12546566 -0.1120471 0.25415254 0.6181711 0.49408665 0.09519927 -0.77828187 0.0035731306 -0.10986541 0.20868358 0.6383815 1.0373926 0.14884134 -0.14706956 0.6675486 0.08166714 -0.15985091 -0.39023596 0.24699429 -0.09379504 -0.3065763 0.12578154 0.09633166 0.12183266 0.15986444 0.36207163 0.11536306 0.16750127 0.16095573 -0.05094323 0.21952417 -0.24943289 -0.906195 0.35754764 0.19711345 0.018220793 0.06947221 -0.1857137 0.33834037 0.41007942 0.089471035 -0.17422998 -0.55526584 -0.04645979 -0.062489722 0.06972038 -0.11535987 0.088269524 -0.206698 -0.13365437 -0.14845689 0.29382297 -0.16894868 0.06809721 0.31866008 0.24794565 0.05646554 -0.69880694 -0.43203175 0.23243357 -0.282626 0.05625381 -0.024608126 0.16373335
are 0.4490007 -0.14285226 0.18405971 0.024762338 0.10827389 0.078656584 -0.43881232 0.33435726 0.15851417 0.29888922 -0.0030488146 0.15360157 -0.17352502 0.37460124 -0.04212122 -0.009856845 -0.068904765 -0.17588674 -0.95275366 0.3350974 0.064609855 -0.3773466 -0.15382762 -0.36647907 -0.012182352 0.32014441 -0.18297242 1.0301089 0.41707206 0.075324565 -0.30451187 -0.025174815 0.027654381 -0.033007607 0.7878703 0.090139985 0.10295727 -0.14051238 0.192649 0.58584917 0.53855073 0.13012326 -0.717446 -0.003050885 -0.1243535 0.20818861 0.65955704 0.9650593 0.14980221 -0.21498573 0.5885918 0.11337159 -0.16905996 -0.34010515 0.22931449 -0.06100116 -0.2685413 0.18446311 0.065405674 0.046342608 0.14263089 0.4510653 0.047648173 0.168489 0.14517105 -0.09337957 0.19042082 -0.20755441 -0.85932064 0.3657986 0.2706256 0.054518294 0.1328953 -0.17027013 0.32421735 0.37012953 0.0276783 -0.149589 -0.48180115 -0.03742071 0.0005975259 0.03482152 -0.05242637 0.07503566 -0.18056639 -0.11032471 -0.13924885 0.30215165 -0.20270258 0.048086636 0.2941684 0.3299986 0.060473077 -0.77821505 -0.43721604 0.27395076 -0.25193208 -0.0075849826 -0.027110193 0.13216978
t 0.43206578 -0.18380149 0.21409972 0.064539775 0.111402735 0.11532766 -0.44476408 0.36759955 0.15761544 0.3194635 -0.07898437 0.09775913 -0.21071349 0.4010226 -0.050496668 -0.018441442 -0.03735964 -0.18157841 -1.0353785 0.33737233 0.062194526 -0.32489932 -0.13120225 -0.38529775 -0.015105028 0.34267575 -0.18003622 1.0915226 0.4826617 0.07394715 -0.30298275 0.013492668 -0.04469243 -0.026307836 0.80148965 0.09172303 0.15496765 -0.08379075 0.18892527 0.66343814 0.5721893 0.13620453 -0.79867077 -0.05035815 -0.13612498 0.20452002 0.6424667 1.0059891 0.16032296 -0.25332427 0.6914062 0.12928055 -0.19613925 -0.37831852 0.21462348 -0.076489545 -0.33139098 0.20401968 0.04926955 0.03994864 0.15803872 0.45762715 0.030402126 0.20094547 0.14109764 -0.07310775 0.2589784 -0.2105449 -0.9321685 0.36567184 0.26331177 0.08205467 0.13092007 -0.20322269 0.3838999 0.38095 0.05687237 -0.17022303 -0.53919953 -0.05887134 -0.0095250765 0.042992238 -0.07872132 0.073464714 -0.2006479 -0.06780402 -0.14222299 0.33406773 -0.20996599 0.053411815 0.28031301 0.3585898 0.07789585 -0.8483382 -0.49222964 0.3147123 -0.26314506 -0.019204432 -0.04678644 0.1802746
can 0.41103745 -0.15040551 0.18583317 0.028673217 0.09711076 0.07876178 -0.40696082 0.33738932 0.1553377 0.2772614 -0.052653708 0.13208918 -0.17834261 0.3537253 -0.050834034 -0.010201482 -0.05968393 -0.16226217 -0.9316502 0.29815087 0.0319042 -0.33897528 -0.1467703 -0.3522549 -0.0034753492 0.32584637 -0.14455445 0.99316835 0.43013325 0.081370704 -0.29442132 -0.031675413 -0.013503505 -0.037125308 0.76229364 0.083787985 0.108867735 -0.111041956 0.20856528 0.5741517 0.50691736 0.13216186 -0.7145582 -0.017778985 -0.12173214 0.17209643 0.624527 0.9544817 0.12343617 -0.22117741 0.6127685 0.10251363 -0.17558248 -0.32852355 0.22081475 -0.054715168 -0.2787457 0.2006785 0.062483847 0.0626455 0.160635 0.42188394 0.048537597 0.166492 0.15695003 -0.076997936 0.19929329 -0.23264691 -0.8438892 0.37319025 0.23938139 0.05715919 0.11356413 -0.18223543 0.31311235 0.34508476 0.03214122 -0.13796243 -0.47181627 -0.045184765 -0.028247815 0.044178955 -0.07803172 0.07351241 -0.17664807 -0.082709864 -0.13636145 0.31001335 -0.18020889 0.048311647 0.27842233 0.31916314 0.039549913 -0.78154665 -0.43601936 0.26302168 -0.25386465 0.012167196 -0.016891625 0.16451375
so 0.4231941 -0.1492081 0.19132084 0.03714478 0.11769884 0.06037106 -0.43068606 0.34618145 0.1640519 0.29902363 -0.04772072 0.12957127 -0.1973426 0.3668927 -0.054642197 -0.019941067 -0.053987972 -0.1667782 -0.96685123 0.31511575 0.048301212 -0.35518628 -0.14380975 -0.36338603 -0.010913128 0.33576846 -0.15149672 1.0305271 0.43571526 0.083855145 -0.30774763 -0.0237711 -0.012778207 -0.03526868 0.78631914 0.07972218 0.11991647 -0.1183007 0.21481219 0.60576636 0.5382085 0.1329105 -0.73116744 -0.012180683 -0.116157465 0.17396416 0.6428787 0.9889219 0.12787049 -0.21668258 0.63024193 0.107153326 -0.18583377 -0.34420666 0.23010911 -0.06526121 -0.27495965 0.19370256 0.06659037 0.061889336 0.15036477 0.43517858 0.048051577 0.17915313 0.15242268 -0.07993516 0.19830658 -0.23004669 -0.8823397 0.38483104 0.26122224 0.040152002 0.11747118 -0.17280638 0.31845874 0.37209228 0.0434131 -0.15903021 -0.5111095 -0.038328882 -0.039281305 0.039512012 -0.08505554 0.069786966 -0.18068568 -0.106265344 -0.12941954 0.31805596 -0.16942966 0.06163131 0.28487512 0.32804516 0.040330593 -0.80809385 -0.44246694 0.26703593 -0.27362072 0.014739989 -0.00801372 0.15065788
m 0.37978455 -0.15096383 0.16945225 0.029002286 0.098894075 0.08150749 -0.40053093 0.32879284 0.14050892 0.26982555 -0.058031447 0.12033403 -0.17877628 0.32327008 -0.04665454 -0.010564617 -0.05225524 -0.14199391 -0.9160551 0.28487256 0.029837528 -0.35956743 -0.12165106 -0.32361448 0.02116103 0.33629987 -0.13018984 0.97441304 0.40137875 0.07509501 -0.30691373 -0.044715807 -0.017336255 -0.038060166 0.73327124 0.07008151 0.112993166 -0.11450948 0.2032919 0.5485136 0.5200624 0.13117242 -0.7031665 -0.033160433 -0.13263586 0.1532994 0.63108087 0.93836856 0.099400796 -0.20969523 0.59482807 0.10062554 -0.16393335 -0.33123967 0.18216604 -0.06564968 -0.2549084 0.21852878 0.044459924 0.03777996 0.14230733 0.41863194 0.024267085 0.16353843 0.16728154 -0.06179544 0.1853587 -0.23340404 -0.8566313 0.36947078 0.2418281 0.05507871 0.12557828 -0.17251146 0.30426234 0.32623678 0.045231037 -0.14366947 -0.48507953 -0.036524244 -0.042278703 0.040700775 -0.074776314 0.057658195 -0.18295614 -0.10229058 -0.11816098 0.32687926 -0.15129946 0.055028003 0.29386222 0.3263369 0.026026525 -0.76940805 -0.44168708 0.267309 -0.26660672 0.013098243 -0.009614612 0.16733006
but 0.42953977 -0.15913096 0.19372268 0.027752174 0.11626049 0.07605194 -0.44884336 0.35126004 0.16949168 0.29663882 -0.047666524 0.13923039 -0.20444812 0.38841984 -0.054292448 -0.01310085 -0.054312002 -0.16376807 -0.99221987 0.31460038 0.04928779 -0.38126382 -0.14970899 -0.37822708 -0.0116592 0.34120843 -0.15568085 1.0546681 0.44560695 0.08100961 -0.3149602 -0.024358405 -0.02781444 -0.03740255 0.8082235 0.08264246 0.11888431 -0.124023005 0.22447845 0.6174156 0.55666524 0.13487415 -0.7486389 -0.011970971 -0.12236276 0.17888406 0.655979 1.0051063 0.13584118 -0.22115628 0.6369668 0.09904732 -0.19187783 -0.35355505 0.2402221 -0.07219702 -0.27971634 0.20512305 0.06263292 0.052511837 0.16422972 0.44889644 0.052915208 0.18812527 0.14828949 -0.08763243 0.203098 -0.24391979 -0.9052991 0.39039025 0.26145422 0.046264797 0.11894817 -0.18169701 0.33381414 0.37497836 0.039632916 -0.17170401 -0.5214308 -0.033206534 -0.030824697 0.043442223 -0.08528523 0.069092005 -0.1797971 -0.1116653 -0.13247356 0.33085048 -0.18155113 0.057975076 0.30274567 0.33423305 0.041590743 -0.83482534 -0.44764027 0.26557496 -0.27885935 0.020954011 -0.013512942 0.15866654
not 0.39550602 -0.14117518 0.18170597 0.0288436 0.113442406 0.058446903 -0.4220634 0.33713195 0.15048182 0.2908473 -0.039492987 0.13040733 -0.18420562 0.36487436 -0.055380926 -0.01771618 -0.05432438 -0.15990606 -0.9266893 0.29096252 0.04642412 -0.35118082 -0.1451081 -0.3416474 -0.0065368703 0.3163753 -0.14161749 0.98473734 0.40458873 0.08172352 -0.29483432 -0.020898955 -0.021171018 -0.042221952 0.75110227 0.08339973 0.1180932 -0.11997322 0.20471258 0.5718154 0.51754135 0.118978016 -0.6974224 -0.00740002 -0.11867572 0.16530846 0.61947936 0.9461747 0.12435666 -0.19445458 0.59119123 0.09647109 -0.1770649 -0.3269402 0.21442308 -0.078208774 -0.26552534 0.18623063 0.059505887 0.061688334 0.13966882 0.41673028 0.046548754 0.16218531 0.14559658 -0.07709035 0.19201034 -0.2120929 -0.84257895 0.36040512 0.2502186 0.03973976 0.11279409 -0.17439215 0.3086619 0.35892963 0.038329106 -0.15105323 -0.48565674 -0.030750945 -0.03687027 0.036601666 -0.08333042 0.06291683 -0.17306165 -0.10005189 -0.12620148 0.30726042 -0.1651348 0.05798057 0.28655887 0.30431095 0.033390414 -0.76687133 -0.41896874 0.24717024 -0.2652721 0.01893557 -0.009753926 0.14197785
or 0.47047246 -0.17385085 0.33090347 0.03087086 0.16863474 0.014672006 -0.45436782 0.39765424 0.13195777 0.38142037 -0.103600144 0.09166871 -0.27622485 0.38355082 -0.13233343 -0.105377875 -0.08067081 -0.13971637 -1.1015478 0.29135004 0.047712293 -0.36529228 -0.15927283 -0.31724444 -0.0128577305 0.359842 -0.07147528 1.1126711 0.4847044 0.049679376 -0.2979681 -0.032641347 -0.004923907 -0.056024693 0.8266131 0.092193216 0.15256973 -0.14154144 0.28445864 0.67485255 0.5262306 0.09507381 -0.8303519 0.009688832 -0.11589128 0.23125829 0.6847091 1.0977732 0.18306106 -0.16910492 0.71271354 0.077929944 -0.17169234 -0.42558485 0.2773047 -0.102706976 -0.31145757 0.109370075 0.10918909 0.13816838 0.17186828 0.3837896 0.13061132 0.15702742 0.16884658 -0.06304441 0.2558646 -0.24793302 -0.9536281 0.3627078 0.20631097 0.021607686 0.06817616 -0.19970778 0.3699362 0.43586004 0.09505781 -0.18995576 -0.600292 -0.042410076 -0.07429322 0.073098846 -0.11239822 0.09526869 -0.20235182 -0.15095267 -0.16127776 0.32064795 -0.17897378 0.08879677 0.3472411 0.2519782 0.06540831 -0.73036885 -0.44803977 0.22527657 -0.29769653 0.05377239 -0.027411312 0.15580262
we 0.44450796 -0.15650332 0.21375942 0.02907434 0.13978474 0.06196142 -0.43107173 0.35668182 0.16741201 0.3067293 -0.037949618 0.12193288 -0.20574111 0.37109452 -0.080140755 -0.03802592 -0.06652661 -0.15708767 -0.97823733 0.31678224 0.052696403 -0.3577296 -0.15131013 -0.3519518 -0.023972753 0.33265558 -0.15116563 1.0444081 0.4281629 0.0716076 -0.30089036 -0.013407967 -0.024458284 -0.03782542 0.7819605 0.072296545 0.12907687 -0.11582369 0.22191368 0.6166775 0.5349378 0.11847678 -0.736899 -0.011526282 -0.12069917 0.18403456 0.63640475 0.99175876 0.13895047 -0.21467355 0.6215643 0.09925184 -0.17528112 -0.3419743 0.23502012 -0.08232296 -0.28524715 0.16200687 0.068439916 0.064927414 0.16015619 0.41793385 0.048338145 0.1674063 0.14452988 -0.07979604 0.20573966 -0.23335133 -0.8830554 0.38059366 0.25680295 0.032448977 0.10712306 -0.17816064 0.336044 0.38958204 0.044650823 -0.16273816 -0.50030434 -0.03192675 -0.04303078 0.04278422 -0.079449944 0.0763198 -0.18503231 -0.10392965 -0.13867186 0.3034117 -0.18022968 0.061699178 0.2873936 0.2984212 0.04364332 -0.78560156 -0.43415225 0.2644869 -0.26578775 0.024513533 -0.021926053 0.1434402
do 0.40985706 -0.1367552 0.1526135 0.02244091 0.102691665 0.084645405 -0.3939378 0.31765628 0.16065833 0.27383977 -0.01168384 0.1470458 -0.13966514 0.3319307 -0.033779245 -0.00088130555 -0.06263683 -0.15940322 -0.8740057 0.30820927 0.035118144 -0.34044617 -0.15250053 -0.3586417 -0.005895962 0.31091985 -0.17376272 0.934388 0.40473023 0.08227584 -0.28307718 -0.018313892 -0.0033131533 -0.02805193 0.72024 0.08610066 0.103165165 -0.11490918 0.17950311 0.54707354 0.50028014 0.13281251 -0.6604843 -0.008837749 -0.12421722 0.16777448 0.6073991 0.8951737 0.12772788 -0.22405717 0.5438313 0.113850735 -0.16721885 -0.3084728 0.21479616 -0.056928385 -0.25661966 0.1921468 0.05913053 0.040696997 0.14646702 0.4296668 0.02434044 0.16643277 0.13156989 -0.091694415 0.179644 -0.20204102 -0.79352736 0.3483136 0.23173237 0.060949404 0.11483799 -0.16337536 0.30726895 0.33952084 0.009977728 -0.1325861 -0.4288568 -0.034804013 -0.010443086 0.033694286 -0.05588816 0.08053274 -0.16340633 -0.08048106 -0.120602265 0.2987248 -0.1844164 0.036113247 0.2598214 0.3200703 0.05234604 -0.7549913 -0.3988931 0.261808 -0.24506669 -0.0019319514 -0.029040935 0.15380915
at 0.44010782 -0.16114803 0.22053099 0.03731229 0.12440089 0.053109646 -0.44775683 0.3694592 0.16309968 0.31678125 -0.05445481 0.12059267 -0.22121824 0.37901348 -0.083890885 -0.034017 -0.060691673 -0.16068956 -1.0306245 0.3288042 0.046254754 -0.3817301 -0.14573197 -0.3575968 -0.013051322 0.35461715 -0.14264639 1.0833814 0.4478988 0.08000706 -0.3170507 -0.036759205 -0.01854553 -0.044055276 0.82007724 0.08004619 0.12063527 -0.12593038 0.24033175 0.63410586 0.5606719 0.1314803 -0.7747825 -0.015173583 -0.12428998 0.20016958 0.67872566 1.0469966 0.14533922 -0.20196477 0.660787 0.106409326 -0.18196204 -0.36178628 0.23701267 -0.07613509 -0.2966689 0.17552215 0.07432007 0.06986474 0.15454155 0.4301114 0.0628174 0.18418866 0.16557974 -0.076127104 0.22026637 -0.23479 -0.9364203 0.38758606 0.25343582 0.040380064 0.1097336 -0.19153772 0.33456877 0.39603966 0.053923592 -0.16422577 -0.5390916 -0.03240645 -0.034737065 0.047715947 -0.09196189 0.07476067 -0.20163195 -0.12115388 -0.13816173 0.32909873 -0.18129303 0.061449755 0.31326184 0.31201115 0.039329223 -0.8105021 -0.4551486 0.26758426 -0.284279 0.021535587 -0.01639593 0.16009635
get 0.4056653 -0.14872305 0.22781505 0.02682607 0.1164336 0.03607562 -0.4063154 0.33005637 0.14140275 0.30037466 -0.058819827 0.10594551 -0.19796433 0.33753595 -0.076430045 -0.03236404 -0.06543246 -0.14103067 -0.9313538 0.27711928 0.04069135 -0.33454078 -0.14422157 -0.3172365 -0.016261784 0.30420083 -0.11018761 0.97617346 0.4111507 0.07221718 -0.2788744 -0.022144182 -0.0038344488 -0.02879475 0.7226202 0.089913264 0.10736954 -0.11313403 0.21368155 0.56515497 0.48794946 0.10952869 -0.7073964 -0.008077947 -0.108715765 0.18031643 0.6048258 0.9356081 0.12894753 -0.18124104 0.58821607 0.092387296 -0.15242228 -0.34903654 0.2224967 -0.06403145 -0.28338197 0.1552621 0.07735552 0.06314442 0.14104639 0.37213048 0.06827117 0.17072901 0.13724935 -0.070309184 0.20262305 -0.21627517 -0.8363693 0.35879874 0.2179085 0.027476205 0.090107106 -0.17589022 0.31126922 0.36007443 0.05131183 -0.15068005 -0.47538528 -0.03709662 -0.030057395 0.043295294 -0.080806516 0.06741557 -0.1774811 -0.10304663 -0.14404427 0.2986718 -0.16230969 0.055819716 0.28582555 0.28540272 0.058556523 -0.7062832 -0.40621567 0.24370354 -0.2542423 0.00958016 -0.028859992 0.14499608
be 0.4284159 -0.16418107 0.18997326 0.029947108 0.11726968 0.04768603 -0.42166826 0.3558147 0.1487357 0.29744482 -0.048272427 0.12727596 -0.18734659 0.34998026 -0.068184055 -0.0038692676 -0.057367124 -0.16288407 -0.95462614 0.2910579 0.047646366 -0.3629037 -0.15869702 -0.3457918 -0.006275044 0.3135396 -0.13700017 1.0267754 0.42820182 0.08842884 -0.28422743 -0.026966287 -0.01813832 -0.033759415 0.7552235 0.08291019 0.111994885 -0.10453732 0.21384577 0.5926648 0.5296626 0.12379343 -0.7378359 -0.007886642 -0.11029646 0.17676044 0.6264292 0.9757631 0.1262051 -0.19408979 0.59488064 0.0892849 -0.15754837 -0.34638625 0.21541327 -0.0779463 -0.2644367 0.18787067 0.05688345 0.06102642 0.15371758 0.39747727 0.05696887 0.15970199 0.14587139 -0.064686224 0.20105043 -0.23435526 -0.8735274 0.37375408 0.25426808 0.048704013 0.11352021 -0.18004543 0.32138628 0.35760862 0.048879955 -0.15512377 -0.4950836 -0.050898034 -0.015594993 0.041265603 -0.062353995 0.06604666 -0.15751229 -0.09040359 -0.13759644 0.31565422 -0.17030548 0.047663294 0.29860905 0.31471124 0.04201001 -0.76892954 -0.42121676 0.2570756 -0.27750587 -0.0070325346 -0.025844837 0.1553637
if 0.41247144 -0.15176581 0.17456569 0.02558978 0.107838385 0.058906518 -0.41033375 0.32761607 0.14982885 0.29149637 -0.046835624 0.12557882 -0.1905086 0.35533506 -0.052216113 -0.008136523 -0.06265096 -0.14992566 -0.9162155 0.3056751 0.041814692 -0.33640596 -0.14500299 -0.35771766 -0.0074012014 0.32020104 -0.14763789 0.985355 0.4248066 0.07295117 -0.28751746 -0.014799301 -0.019489765 -0.031222684 0.75931805 0.09448671 0.11746038 -0.11243996 0.2146453 0.58926857 0.5079119 0.12802877 -0.70971495 -0.014109205 -0.11354042 0.17458068 0.61928195 0.9507133 0.1272448 -0.20668113 0.60311127 0.10595288 -0.17458805 -0.3260889 0.22014457 -0.05757583 -0.27124366 0.19501671 0.06589092 0.058585722 0.15165053 0.42329848 0.052300908 0.17588186 0.14644043 -0.07937699 0.20064564 -0.22198394 -0.84335405 0.36299825 0.24584769 0.04151831 0.103007436 -0.17218386 0.32247657 0.35674104 0.039032336 -0.14139113 -0.48697224 -0.045037538 -0.031688858 0.038991973 -0.07849956 0.084136024 -0.16717383 -0.09110818 -0.1270261 0.3085525 -0.16518906 0.054145038 0.27123454 0.31228736 0.04320256 -0.7775519 -0.41308555 0.25899008 -0.25587133 0.0125328535 -0.012875712 0.1554681
will 0.38783944 -0.14270942 0.18774125 0.027659124 0.10243308 0.063094735 -0.38655344 0.32825634 0.13388065 0.26770997 -0.051464546 0.111718446 -0.19223045 0.32510576 -0.05739557 -0.03456752 -0.05751936 -0.14880072 -0.9048899 0.2952107 0.042508114 -0.33105004 -0.14603263 -0.31895283 -0.01778754 0.30440694 -0.13095355 0.9593363 0.39715087 0.07364578 -0.28347906 -0.03316134 -0.013713512 -0.027488299 0.7078888 0.07078648 0.097306244 -0.12100141 0.2086057 0.54789585 0.49519378 0.10461649 -0.69738394 -0.008811759 -0.11159785 0.17937057 0.6048454 0.89939135 0.12777632 -0.20151067 0.57151634 0.08450624 -0.15135074 -0.3119049 0.19613376 -0.07020302 -0.24991366 0.17576958 0.05994192 0.06598377 0.13669646 0.3868338 0.04266033 0.15954469 0.13918968 -0.07200433 0.19611573 -0.22377227 -0.8320227 0.34270248 0.22783963 0.03628635 0.10738015 -0.16640244 0.31098986 0.3320097 0.04434057 -0.14573112 -0.4724344 -0.039571974 -0.020310687 0.048446767 -0.07978923 0.072393045 -0.16791786 -0.08851143 -0.11701548 0.2957058 -0.14942628 0.046449736 0.2821977 0.30670837 0.04019811 -0.7216281 -0.39997005 0.25128728 -0.24118221 0.013632591 -0.016477548 0.14281563
ur 0.49128604 -0.18495482 0.32645744 0.033556968 0.17937016 0.015988516 -0.50803447 0.40922397 0.17047554 0.37962827 -0.09719233 0.10251821 -0.2810527 0.4235698 -0.12096431 -0.09425357 -0.07435998 -0.16589499 -1.150364 0.319734 0.06043731 -0.39321047 -0.18383324 -0.34879547 -0.04387814 0.38406867 -0.103996396 1.1812826 0.49522093 0.06779721 -0.33640787 -0.049334664 -0.013416412 -0.053890374 0.89315134 0.09999443 0.14742844 -0.14245108 0.28311533 0.7013608 0.57489055 0.11598344 -0.8576992 0.0023537565 -0.112855524 0.23888476 0.72247386 1.147869 0.19068016 -0.19183847 0.74656755 0.0769127 -0.19420162 -0.44586954 0.30594212 -0.08858784 -0.35565096 0.1375722 0.11386149 0.11689329 0.17977805 0.43366164 0.12105525 0.19266838 0.15476297 -0.08004521 0.25371596 -0.26062074 -1.0269054 0.41314358 0.25215745 0.01908721 0.09536618 -0.20148675 0.38002786 0.47119376 0.09554405 -0.23371579 -0.6207569 -0.04059747 -0.056758046 0.086248845 -0.13278013 0.09081719 -0.21782602 -0.18026948 -0.1566605 0.34672877 -0.17479889 0.09613655 0.35289937 0.31007665 0.07962932 -0.8013809 -0.47201568 0.23495804 -0.33447304 0.049872056 -0.016331835 0.14520004
with 0.44236323 -0.15900742 0.2642398 0.023467135 0.15159738 0.03054801 -0.44025964 0.3573356 0.15488912 0.33379036 -0.061028194 0.11381606 -0.22994992 0.3828779 -0.09118287 -0.061812077 -0.06453207 -0.14862569 -1.020354 0.29572973 0.056373544 -0.36823562 -0.16415942 -0.31867352 -0.028690334 0.3261318 -0.11331824 1.0463595 0.43647596 0.06533679 -0.29520372 -0.028040601 -0.0020960397 -0.03534405 0.78459173 0.08593992 0.123182125 -0.1383844 0.24204546 0.6142678 0.52217996 0.107988045 -0.76076204 0.0025928323 -0.121527284 0.21477316 0.64700323 1.0136731 0.16336069 -0.17425403 0.6310844 0.082442485 -0.16472882 -0.37978086 0.25423703 -0.088123366 -0.30092198 0.13109437 0.08701029 0.08804349 0.15316695 0.3859631 0.09544832 0.1593855 0.14917946 -0.067291945 0.2222234 -0.23240086 -0.8956961 0.36755198 0.23167002 0.021055628 0.09014475 -0.18890901 0.3279619 0.39689404 0.06447686 -0.18753633 -0.53648764 -0.034390904 -0.039159805 0.05523437 -0.09885272 0.06747434 -0.18340373 -0.12957266 -0.14209929 0.3153993 -0.1736943 0.076434135 0.3159564 0.28871915 0.07369724 -0.7306771 -0.42927536 0.22701925 -0.28047913 0.027150191 -0.015971553 0.13583739
no 0.44190848 -0.16084713 0.25035346 0.027770681 0.14114934 0.031802382 -0.4433733 0.35952374 0.1455415 0.3363448 -0.06701284 0.10993154 -0.23474687 0.38375792 -0.09101071 -0.05501649 -0.06699588 -0.16252531 -1.0197028 0.30156225 0.04859455 -0.3588174 -0.1560216 -0.33393908 -0.022872617 0.33784565 -0.11211867 1.0598407 0.4509464 0.07562561 -0.30394098 -0.036228225 -0.016317353 -0.03945696 0.7980704 0.08986142 0.12834387 -0.12175722 0.23723891 0.623306 0.53178024 0.10757975 -0.7716445 -0.007994481 -0.11341819 0.2075825 0.6545908 1.0251883 0.1592032 -0.18185236 0.64567363 0.08158098 -0.17397389 -0.38597873 0.25855052 -0.078097254 -0.30828092 0.14580844 0.092306726 0.08765322 0.1607549 0.4003304 0.08608964 0.17666529 0.14524756 -0.074361704 0.22627158 -0.24307346 -0.9068785 0.37146497 0.2243525 0.028363565 0.09468911 -0.18275005 0.33782607 0.40249118 0.062220946 -0.19564503 -0.53484076 -0.040421303 -0.043006625 0.057439603 -0.10133619 0.07272488 -0.18884622 -0.13437566 -0.14914575 0.31411076 -0.17241493 0.07739865 0.31823698 0.29798105 0.061127435 -0.7493284 -0.4480936 0.23418157 -0.28538063 0.02278901 -0.012010275 0.13923167
just 0.43187678 -0.16328175 0.26375917 0.023467068 0.14249042 0.033071227 -0.4454043 0.35823154 0.14798778 0.32634708 -0.07288155 0.109431535 -0.22230431 0.3649238 -0.08916385 -0.05003053 -0.06286257 -0.15527116 -1.013996 0.30248013 0.040118083 -0.35157812 -0.15163274 -0.3297372 -0.015907208 0.32642823 -0.10433062 1.0440953 0.43966874 0.06956648 -0.29187244 -0.039492887 -0.0031816757 -0.040734377 0.78326166 0.09216045 0.12514427 -0.121901646 0.2407927 0.6147739 0.5282118 0.11629852 -0.7593504 -0.0015483745 -0.11620041 0.21378794 0.6515118 1.0140293 0.15484366 -0.17653182 0.6413999 0.091385774 -0.1746682 -0.38930693 0.24196005 -0.08340988 -0.3123671 0.14575247 0.08282857 0.08654722 0.14977454 0.39192015 0.092114486 0.17912146 0.14716846 -0.06705161 0.22797678 -0.23965426 -0.9064033 0.3775899 0.22857723 0.03385073 0.08866111 -0.1834325 0.32677457 0.39326495 0.063042015 -0.1759293 -0.53453875 -0.03760496 -0.028827164 0.057646777 -0.105791576 0.07399572 -0.1877149 -0.11745077 -0.14933668 0.3072108 -0.17871551 0.07020291 0.31260303 0.29802555 0.06822179 -0.7449267 -0.43595332 0.24498434 -0.2734191 0.027546419 -0.021857984 0.14684619
this 0.43588406 -0.15453288 0.253744 0.018889263 0.14235097 0.032268994 -0.43547854 0.36012107 0.1530932 0.32526666 -0.051073033 0.11565796 -0.22367094 0.37969217 -0.08176037 -0.06247492 -0.06734644 -0.15469226 -0.9931114 0.28734022 0.042907696 -0.35326707 -0.15943365 -0.30641824 -0.04315095 0.32425305 -0.10755073 1.022954 0.433859 0.07124246 -0.29003164 -0.041479226 -0.003094873 -0.02772673 0.7720821 0.09483309 0.12657578 -0.124370776 0.2299225 0.603924 0.5165231 0.10287306 -0.75581527 0.004501598 -0.106479734 0.20530473 0.6289318 0.9857352 0.14612088 -0.17225884 0.6201182 0.075975165 -0.15716912 -0.37894002 0.26257393 -0.08171509 -0.3027192 0.14099872 0.08114725 0.08178325 0.15417068 0.39509058 0.084135756 0.16360039 0.1394839 -0.07636147 0.21913703 -0.23186748 -0.8757986 0.36087143 0.23515007 0.023944676 0.09702543 -0.18667346 0.33385596 0.40175125 0.060135692 -0.17644809 -0.51779485 -0.041539874 -0.027650882 0.04773367 -0.090465024 0.06347576 -0.19077125 -0.13421851 -0.14478831 0.30060804 -0.18224645 0.07677574 0.31105107 0.28352377 0.08182776 -0.7234325 -0.4295183 0.22354268 -0.2728222 0.021049963 -0.029741608 0.12626685
how 0.41984946 -0.13696545 0.17330997 0.019427674 0.12820002 0.06909705 -0.4196094 0.31525493 0.16166104 0.2884899 -0.00509595 0.14899643 -0.17523661 0.34816104 -0.034190487 -0.018517805 -0.05339333 -0.16670181 -0.9028443 0.3207191 0.060113735 -0.34397578 -0.14923522 -0.3449923 -0.024201572 0.3073732 -0.16716847 0.9775285 0.3926385 0.081745714 -0.28821346 -0.027666274 0.004787327 -0.033504054 0.7522034 0.08939984 0.09323656 -0.11553723 0.1983238 0.56574553 0.51984423 0.12293506 -0.6738586 -0.0033870398 -0.117541514 0.17804493 0.6178879 0.92514163 0.12004696 -0.21811333 0.5627968 0.11009689 -0.18015881 -0.30900586 0.22405767 -0.061388534 -0.27035317 0.18889605 0.044413768 0.03893528 0.13443547 0.43817526 0.037608244 0.1774909 0.13238627 -0.083545804 0.18540774 -0.2170444 -0.8335252 0.36913657 0.26215634 0.039954614 0.12857713 -0.16773036 0.3056669 0.3652341 0.019021628 -0.16157575 -0.47007346 -0.029814947 -0.01880274 0.03012938 -0.07011725 0.06379436 -0.1782806 -0.09783288 -0.12972128 0.30041155 -0.17687774 0.05890721 0.2688559 0.31909838 0.05326135 -0.7630535 -0.42206684 0.254634 -0.24756426 0.0117437625 -0.009466624 0.123225234
up 0.44228652 -0.15149432 0.21510793 0.035460602 0.12619942 0.06636993 -0.43150693 0.35457185 0.16215034 0.2986867 -0.041934177 0.13562696 -0.20256966 0.3665048 -0.068143584 -0.03670624 -0.057714626 -0.16144852 -0.9854382 0.31901473 0.03944134 -0.3698186 -0.15372908 -0.36156732 -0.011190511 0.33146673 -0.15753408 1.0485675 0.44015697 0.072851285 -0.31561986 -0.017387826 -0.014821189 -0.04252341 0.8022158 0.0883727 0.11855529 -0.12720212 0.22945413 0.6186699 0.54224414 0.13280281 -0.75367135 -0.0032131614 -0.12299456 0.19054115 0.658018 1.007771 0.1354742 -0.22008131 0.63786525 0.09972859 -0.17504276 -0.349344 0.2305375 -0.06636593 -0.28858057 0.18357421 0.07479944 0.061889064 0.15408316 0.43981552 0.048983555 0.17629111 0.15767002 -0.08280458 0.1994851 -0.23359971 -0.8959887 0.38373172 0.25995985 0.05127819 0.119378634 -0.18428579 0.33172816 0.384469 0.03336691 -0.15637381 -0.5137308 -0.030040344 -0.033888508 0.03822806 -0.08014907 0.06518087 -0.19302355 -0.10806375 -0.13776223 0.31608918 -0.17798114 0.06550438 0.29835236 0.31353384 0.04292371 -0.8027518 -0.45013922 0.27214557 -0.27997962 0.020705674 -0.012036269 0.15380579
when 0.4099274 -0.14587985 0.18242858 0.014717689 0.09932544 0.06959519 -0.39648035 0.3393773 0.14805804 0.2891749 -0.029592074 0.13584262 -0.17337102 0.34783268 -0.049878035 -0.005452625 -0.048336435 -0.15927453 -0.9101521 0.2972351 0.036130533 -0.34974238 -0.13642164 -0.34347168 -0.0079905 0.32024872 -0.15619414 0.98026496 0.41667166 0.07658897 -0.29403463 -0.024319129 -0.007215672 -0.041317713 0.7390612 0.07708935 0.102022536 -0.10539121 0.20372586 0.5715481 0.50117993 0.1295213 -0.7061778 -0.009280868 -0.11330335 0.16977717 0.6089717 0.93229705 0.11552565 -0.20881449 0.5829665 0.1044697 -0.16826299 -0.32132998 0.21625271 -0.06882275 -0.26214573 0.18309894 0.05564333 0.05897554 0.14715178 0.41451895 0.040509894 0.17581086 0.13917838 -0.08414641 0.1906249 -0.2247933 -0.84102744 0.36224082 0.25076973 0.050883908 0.10718563 -0.17570612 0.30593854 0.35359976 0.030901732 -0.14117582 -0.46707958 -0.039821193 -0.02130618 0.034277707 -0.062936306 0.06977943 -0.17962094 -0.091978036 -0.12598972 0.29749817 -0.17350025 0.041690506 0.2830001 0.31524318 0.037298106 -0.76393193 -0.41375846 0.26567444 -0.25370565 0.0052740155 -0.01942594 0.15151782
ok 0.352722 -0.13876651 0.17375879 0.036332544 0.109913394 0.04036376 -0.37834305 0.30907208 0.12875025 0.26343828 -0.056577917 0.09817247 -0.1941858 0.32850468 -0.054527994 -0.028690029 -0.041819952 -0.13818447 -0.84699786 0.26532623 0.049890824 -0.3180946 -0.12608838 -0.31264007 -0.008081763 0.30325365 -0.13005742 0.9071242 0.37360737 0.054866187 -0.2615051 -0.032903492 -0.03134873 -0.03761679 0.68996906 0.062412016 0.09973806 -0.10506196 0.19384277 0.5326069 0.46909204 0.09997709 -0.62979925 -0.013657823 -0.10697003 0.1527963 0.5573644 0.8635657 0.12288932 -0.18248187 0.5416402 0.09202689 -0.16629314 -0.30184656 0.20034176 -0.07933564 -0.24570279 0.1636411 0.056744233 0.053420655 0.14065288 0.37714285 0.054495204 0.1599022 0.121198215 -0.069872335 0.17194214 -0.21022746 -0.7620444 0.32509097 0.21477178 0.03469482 0.10258303 -0.14753227 0.2824676 0.3338102 0.0523282 -0.14514838 -0.4550005 -0.033599295 -0.046849865 0.037411015 -0.068136275 0.07180842 -0.15425372 -0.1047537 -0.11681943 0.2767835 -0.13857964 0.06350005 0.25432876 0.28038892 0.020497823 -0.69879895 -0.3797899 0.22343989 -0.24374782 0.02314444 -0.0032949022 0.12988077
what 0.39371186 -0.13436611 0.15939017 0.020498097 0.11779962 0.08266955 -0.38081715 0.3109155 0.16423316 0.26670274 -0.006970122 0.13224342 -0.16247463 0.33100098 -0.03444448 -0.002390572 -0.051457636 -0.14725246 -0.861638 0.30251017 0.038713243 -0.3172247 -0.12791625 -0.33238214 -0.004677328 0.2952524 -0.15251306 0.9240614 0.370861 0.076982774 -0.27932727 -0.025654836 -0.011488587 -0.03795858 0.71288884 0.07736908 0.09751934 -0.10362082 0.17809217 0.5268163 0.49226743 0.12298176 -0.6442621 -0.005680311 -0.10848178 0.1596509 0.5799859 0.881848 0.12582955 -0.20349787 0.53293717 0.110130616 -0.16402914 -0.2928519 0.20819795 -0.06369339 -0.25968918 0.19213891 0.043191954 0.046869274 0.13899218 0.41344163 0.028920008 0.15690042 0.13856372 -0.082243145 0.1750416 -0.20423989 -0.7809185 0.34011555 0.23951595 0.04218504 0.12226156 -0.16024397 0.2893631 0.3449136 0.0071865385 -0.13110548 -0.4285816 -0.03812934 -0.003965609 0.033201408 -0.064276434 0.071314715 -0.1600345 -0.09210477 -0.12182245 0.28624827 -0.17102078 0.04609162 0.2616078 0.30507132 0.045702353 -0.71803284 -0.3972966 0.24999301 -0.24148712 0.0019902207 -0.015490814 0.13321315
free 0.44409052 -0.17585942 0.36584574 0.013778203 0.17709517 -0.024992855 -0.43803468 0.3649057 0.11179835 0.3708674 -0.11779016 0.064951584 -0.2732426 0.37165615 -0.14416406 -0.11544713 -0.077828184 -0.11651046 -1.0540609 0.2606283 0.035267506 -0.33100286 -0.15281092 -0.25433385 -0.027490009 0.3199905 -0.034602888 1.0457202 0.4522875 0.048186153 -0.26781347 -0.043337494 0.008597484 -0.048898555 0.76685715 0.088329956 0.12776928 -0.1286397 0.27423126 0.6073752 0.47650203 0.08472187 -0.780369 0.02217817 -0.11002325 0.23688804 0.64132893 1.0339429 0.17238662 -0.11665533 0.6555957 0.048037723 -0.1372048 -0.43290037 0.25734907 -0.10393867 -0.3123664 0.057060737 0.13352126 0.15196002 0.14353204 0.31746516 0.14332707 0.15433413 0.14271551 -0.046293322 0.23614205 -0.23512441 -0.8954393 0.33983853 0.18208443 -0.0023501343 0.053112987 -0.20951462 0.3250912 0.41338474 0.10098314 -0.19745922 -0.56095713 -0.046456985 -0.06585959 0.069742024 -0.123498246 0.081565246 -0.19769567 -0.1666455 -0.17215382 0.28726643 -0.16713095 0.08776043 0.31556463 0.20534328 0.096550785 -0.6137112 -0.42688155 0.18806133 -0.2737455 0.04312082 -0.039036557 0.13034357
go 0.4079882 -0.16296144 0.2217183 0.035303064 0.12183605 0.04237915 -0.43550485 0.3425484 0.14287375 0.3009385 -0.06852426 0.104361326 -0.2242722 0.36577767 -0.08933204 -0.040772974 -0.070321456 -0.14756562 -0.9747347 0.28995085 0.03965548 -0.34658903 -0.15318368 -0.34717864 -0.0062902654 0.3293431 -0.12628205 1.0296928 0.43060994 0.06066919 -0.29847535 -0.031894155 -0.029204799 -0.03696033 0.78298676 0.086601324 0.12026537 -0.12606166 0.23839648 0.6139131 0.5124231 0.116214156 -0.7415338 -0.0065145 -0.10806732 0.17885439 0.632882 0.99342793 0.14151223 -0.18587458 0.631219 0.09525228 -0.17612103 -0.36043787 0.23605233 -0.06921975 -0.29844588 0.1740883 0.090167634 0.06827173 0.16141473 0.39789748 0.07102553 0.17259534 0.14209017 -0.07485114 0.21905987 -0.23803233 -0.8731786 0.36658338 0.22440617 0.026891295 0.09560557 -0.16136856 0.33048558 0.3833387 0.065630235 -0.16964695 -0.50484264 -0.0353896 -0.045999642 0.055964142 -0.089650564 0.074437775 -0.18696594 -0.12523912 -0.14258777 0.29687482 -0.15692298 0.063262895 0.29409838 0.29363543 0.035295993 -0.752802 -0.4242333 0.25451377 -0.27409026 0.038260233 -0.013088826 0.14966115
from 0.43945676 -0.15338574 0.2834026 0.020269325 0.14577113 0.019163676 -0.4146018 0.3496053 0.11629575 0.34217918 -0.078577064 0.09756026 -0.25813127 0.35927472 -0.11724573 -0.086008556 -0.076567836 -0.123047255 -1.0048488 0.27439484 0.037618034 -0.3530118 -0.14738192 -0.2879352 -0.01612746 0.3107865 -0.07160692 1.0090294 0.44678903 0.055301096 -0.28681207 -0.033543594 -0.0004383573 -0.048434433 0.75515777 0.082840085 0.12306824 -0.12764192 0.258145 0.6022791 0.49100116 0.0880468 -0.7676128 -0.0037675425 -0.10369203 0.22743344 0.635149 1.0027206 0.16671422 -0.14615662 0.63912594 0.07262813 -0.15685032 -0.3874903 0.2449901 -0.08901962 -0.28053668 0.09966612 0.10555553 0.13027015 0.14408208 0.34982124 0.10340468 0.14272736 0.1556381 -0.060919087 0.22512574 -0.23447406 -0.8704118 0.34140524 0.19759369 0.008059782 0.067772694 -0.18380693 0.33121517 0.39802837 0.087974615 -0.17120083 -0.5394299 -0.034455925 -0.04864875 0.07049297 -0.11021728 0.08042339 -0.19050398 -0.13059777 -0.13666523 0.2936172 -0.17471963 0.07621534 0.3152853 0.23163809 0.07197752 -0.65589905 -0.41574368 0.21610989 -0.26635537 0.044828463 -0.021570748 0.13877015
all 0.43830967 -0.15424207 0.21800426 0.039659534 0.13442013 0.047567766 -0.4346773 0.35761967 0.16652569 0.31170803 -0.04075084 0.124137215 -0.21190198 0.37386298 -0.07090868 -0.04067242 -0.06879358 -0.16365905 -0.99433094 0.3052421 0.053266726 -0.3658386 -0.15008238 -0.3429998 -0.036046732 0.32340366 -0.14219406 1.0478873 0.43205723 0.07326947 -0.30513626 -0.030409766 -0.007070307 -0.040427443 0.7803375 0.0803179 0.109859005 -0.122680604 0.23269635 0.60877526 0.53988385 0.120023936 -0.7437638 -0.00724548 -0.10972904 0.197522 0.6459188 0.99999344 0.13944048 -0.1908401 0.62224305 0.08831658 -0.17192295 -0.3609847 0.2413286 -0.08041116 -0.29440895 0.16908123 0.07779822 0.06507641 0.15232824 0.4180842 0.06624851 0.17290807 0.14394078 -0.07359177 0.21324813 -0.22641324 -0.8953392 0.36898926 0.25820535 0.038220137 0.107973024 -0.18185975 0.33237863 0.39464822 0.04224315 -0.17870744 -0.5224744 -0.033593588 -0.036460135 0.043863285 -0.09291515 0.06918644 -0.18449189 -0.12185143 -0.137047 0.31339914 -0.17709695 0.06925368 0.30403784 0.3029093 0.056404144 -0.771799 -0.4385246 0.2528887 -0.2698434 0.02786379 -0.019478854 0.12969671
out 0.43401977 -0.15679646 0.22453068 0.026305849 0.12880872 0.041359544 -0.45302865 0.36009562 0.16207467 0.31229708 -0.056923177 0.11985166 -0.20977414 0.38494492 -0.071532585 -0.044807717 -0.0766324 -0.15733992 -1.0041624 0.3156689 0.05615827 -0.36263874 -0.16033575 -0.35594985 -0.023777002 0.3368185 -0.1382313 1.0557956 0.44330478 0.07827293 -0.2979387 -0.01945584 -0.01638318 -0.047989696 0.8041761 0.091155834 0.120596886 -0.1269243 0.23865175 0.6085395 0.5474388 0.12349126 -0.7582038 -0.006723866 -0.11484381 0.19223212 0.6529718 1.0185767 0.14561127 -0.20166315 0.64693516 0.08997326 -0.17341608 -0.362942 0.2434293 -0.07602901 -0.2962967 0.17162381 0.07085196 0.06779721 0.15298755 0.41535208 0.0718437 0.17021771 0.1444386 -0.070165746 0.21136267 -0.23427093 -0.8927921 0.38371408 0.25865942 0.026332563 0.10319608 -0.17782573 0.3345626 0.4002371 0.05739691 -0.18417163 -0.52720773 -0.028111337 -0.038161945 0.051565453 -0.09153889 0.07511338 -0.1876366 -0.11614368 -0.13778022 0.31710204 -0.17562166 0.06154078 0.30664524 0.31163198 0.052007042 -0.7897447 -0.43363908 0.2504781 -0.27465466 0.03472068 -0.009859829 0.1481694
ll 0.38827592 -0.13840295 0.1822813 0.026516113 0.07795423 0.053789068 -0.37572014 0.33838323 0.1169443 0.25610745 -0.066450566 0.10356294 -0.18919581 0.29208425 -0.04239473 -0.028447958 -0.053831533 -0.15013081 -0.88868964 0.29892066 0.011426515 -0.32820162 -0.12240015 -0.32467678 0.015074024 0.32457152 -0.14015134 0.9226787 0.4112251 0.069018565 -0.2654194 -0.03936966 -0.01354891 -0.04967391 0.7169057 0.052555833 0.11221192 -0.08329202 0.21056218 0.54227793 0.46888027 0.11639616 -0.689243 -0.036155462 -0.122138835 0.14910544 0.59836847 0.8898829 0.11134289 -0.21864717 0.585877 0.11256545 -0.15538134 -0.31410354 0.17201148 -0.06988721 -0.22776711 0.20092632 0.039702553 0.057166055 0.13106805 0.40714177 0.015476683 0.14740977 0.16309534 -0.06576829 0.18473174 -0.23476093 -0.8235136 0.3316154 0.23165292 0.06474315 0.09515251 -0.18131152 0.3050359 0.31739157 0.045691878 -0.10740234 -0.45544368 -0.052848276 -0.043438315 0.03845844 -0.050550606 0.061807428 -0.16744213 -0.07041116 -0.11540055 0.30284533 -0.15733261 0.049172588 0.2639265 0.28872538 0.023481483 -0.7412368 -0.42514297 0.25867727 -0.2470496 -0.0039292052 -0.016033685 0.17149794
know 0.3564284 -0.120237276 0.11659107 0.025555361 0.069338694 0.09819858 -0.36779863 0.2985051 0.14907195 0.24350822 -0.0055008945 0.13107838 -0.12068501 0.31958377 -0.012659614 0.018818416 -0.037375722 -0.1556478 -0.81253964 0.28137043 0.037028722 -0.2954399 -0.13769463 -0.33623087 -0.00085038634 0.27325523 -0.17247906 0.8808052 0.37875152 0.08574692 -0.25552022 -0.010117762 -0.0028873023 -0.023768503 0.6726286 0.08673284 0.09731499 -0.08597943 0.14940868 0.4995015 0.4734757 0.11828077 -0.62846977 -0.020314084 -0.118589565 0.14763908 0.5572673 0.82394004 0.11876024 -0.22598669 0.5210332 0.11951709 -0.15063888 -0.27324924 0.18308492 -0.04621519 -0.24711196 0.21144015 0.034266666 0.00944607 0.13538021 0.41119102 0.013334188 0.15943064 0.13583861 -0.08416848 0.17420553 -0.18912773 -0.73449516 0.32911983 0.24404465 0.067545705 0.12180793 -0.1669722 0.2952202 0.2984276 0.0029547072 -0.10954544 -0.39159104 -0.044451598 0.007341895 0.033662062 -0.039510462 0.05013972 -0.16708305 -0.054476127 -0.12107402 0.288256 -0.17714892 0.044076066 0.23001777 0.3127073 0.048358187 -0.7230541 -0.3938974 0.26929155 -0.22205701 -0.022857087 -0.031270158 0.1511333
like 0.39923394 -0.1541774 0.18214464 0.034236375 0.10946338 0.06613469 -0.41852164 0.33176625 0.14911719 0.2839469 -0.038974106 0.12473432 -0.18478309 0.35730007 -0.05877696 -0.014857393 -0.050957944 -0.15056844 -0.9191227 0.2867309 0.053371973 -0.34156272 -0.1507425 -0.33493853 -0.01283422 0.30544567 -0.1421395 0.9723661 0.40230322 0.08098077 -0.2822766 -0.019865869 -0.008972646 -0.040049374 0.7496464 0.08513763 0.11197919 -0.11714901 0.21184406 0.5743495 0.5121129 0.121368445 -0.697445 -0.008205821 -0.116489634 0.16914575 0.6074997 0.9297319 0.13511097 -0.20431703 0.58839256 0.09444 -0.1735999 -0.3278042 0.22786985 -0.062005684 -0.26880723 0.18213877 0.060309354 0.050369296 0.14282116 0.41486475 0.05762791 0.1686709 0.1353331 -0.06968979 0.20000511 -0.21182388 -0.8377298 0.35024622 0.2449458 0.037034154 0.107190505 -0.17258616 0.30909336 0.35138044 0.040769946 -0.15752855 -0.47809428 -0.04313174 -0.018878985 0.048286147 -0.07357839 0.067055434 -0.16537355 -0.09952981 -0.12801751 0.3081488 -0.16374673 0.062020913 0.27454266 0.3061289 0.040567923 -0.7536525 -0.41518003 0.25210202 -0.262317 0.011666472 -0.020887898 0.14026888
good 0.4350084 -0.15388086 0.20538512 0.032443788 0.13485236 0.05223013 -0.426202 0.34058762 0.15916419 0.29778638 -0.017495913 0.1277915 -0.20027342 0.3595954 -0.05591594 -0.04602771 -0.05986902 -0.16847174 -0.9512359 0.31274414 0.05769246 -0.3674148 -0.14665581 -0.3300256 -0.04004299 0.32650122 -0.14020889 1.0050012 0.41382957 0.072772786 -0.29292142 -0.030069351 -0.004271144 -0.035599474 0.754499 0.07532582 0.10754448 -0.12563524 0.2110165 0.58685 0.5244359 0.11971776 -0.71297544 -0.0049091745 -0.10683953 0.20982657 0.6311032 0.9585502 0.14529629 -0.20721944 0.5975885 0.09675451 -0.17509092 -0.3499812 0.23976834 -0.06814429 -0.27896032 0.16072722 0.060583495 0.065235116 0.14603266 0.42292538 0.054118596 0.16391027 0.13580611 -0.07513391 0.20293266 -0.21861573 -0.85497606 0.35242027 0.25179633 0.039492704 0.11635719 -0.17169258 0.32005304 0.37984923 0.035230856 -0.18535824 -0.49642426 -0.021903114 -0.019247662 0.035810422 -0.08063294 0.06926392 -0.17845158 -0.124078564 -0.1329092 0.31346107 -0.17470342 0.06827822 0.29442206 0.30559984 0.06843918 -0.7462907 -0.4249028 0.25217846 -0.25252274 0.016117735 -0.010044038 0.12998663
then 0.42190284 -0.15532137 0.22735472 0.035639737 0.12684496 0.042626087 -0.4541361 0.35997212 0.1571139 0.30936596 -0.070094086 0.11480933 -0.23861293 0.38423297 -0.08514797 -0.044332203 -0.06544233 -0.1623776 -0.9972379 0.3201737 0.05034697 -0.36930025 -0.15979645 -0.36534113 -0.019864962 0.35221338 -0.14307284 1.0670465 0.4423555 0.06506438 -0.31365684 -0.029631184 -0.03315326 -0.042665876 0.8088498 0.08007637 0.11864911 -0.118576124 0.2443395 0.620325 0.54624623 0.112900645 -0.75478244 -0.010975403 -0.11486832 0.18265323 0.6508793 1.0175111 0.14467274 -0.20815824 0.6583804 0.096723124 -0.18766537 -0.35115495 0.24262406 -0.086660534 -0.29068047 0.1767716 0.07595247 0.07052862 0.16560458 0.43253043 0.07218025 0.1816027 0.13871846 -0.0859778 0.2106442 -0.24141486 -0.9072426 0.3880303 0.24810149 0.03194505 0.107340954 -0.16272576 0.327907 0.394738 0.063309714 -0.17272642 -0.53655696 -0.0345493 -0.059421737 0.05714194 -0.09368909 0.08677547 -0.17475656 -0.12562883 -0.1379523 0.31662095 -0.15914047 0.06437629 0.29636994 0.30899554 0.028686868 -0.80766875 -0.4452875 0.26354212 -0.28096956 0.045759548 -0.0032213274 0.16112766
day 0.43083677 -0.1365607 0.2047901 0.035415698 0.13804293 0.050207097 -0.43174723 0.32397395 0.15733492 0.2948058 -0.024175279 0.120693274 -0.1873707 0.3675866 -0.065346494 -0.047142256 -0.05208704 -0.16226417 -0.94364554 0.3057321 0.053666297 -0.36271206 -0.15288824 -0.32890698 -0.046674803 0.30674145 -0.14581001 0.9898975 0.40137902 0.087709896 -0.28845775 -0.039399326 -0.0076832133 -0.028517822 0.7453183 0.080165185 0.107193165 -0.1374378 0.20983566 0.5685856 0.52168626 0.12059197 -0.70564437 0.0051519233 -0.10655859 0.21092239 0.62829757 0.9416614 0.1456563 -0.20008716 0.5933453 0.09024636 -0.16377401 -0.34404978 0.23711652 -0.07281727 -0.27409953 0.15846458 0.06421507 0.059693564 0.15171838 0.3984512 0.05837092 0.1539685 0.13106349 -0.06560259 0.19153807 -0.20556298 -0.8314615 0.3455948 0.24213962 0.042143326 0.11708888 -0.16158436 0.32161984 0.37275818 0.03241482 -0.19043534 -0.49420512 -0.021188822 -0.022738857 0.035956033 -0.08063483 0.06452276 -0.18157046 -0.11660121 -0.12924123 0.31192714 -0.1749284 0.05749722 0.2893737 0.29833952 0.071845256 -0.71985316 -0.41382763 0.22640601 -0.25624502 0.020947067 -0.010090589 0.11787348
am 0.3719314 -0.14539236 0.18883319 0.030580623 0.104159065 0.062129796 -0.38007534 0.32575285 0.13132167 0.27767912 -0.055525884 0.10407097 -0.18211018 0.3234731 -0.060859412 -0.021726497 -0.054125283 -0.1299619 -0.8844221 0.26851097 0.032005083 -0.34338677 -0.12196005 -0.29036692 -0.0009737885 0.30118987 -0.113367036 0.9313982 0.37635985 0.06406156 -0.28122512 -0.04147011 -0.0073151016 -0.03084255 0.6937505 0.07883511 0.10572708 -0.11092159 0.1943719 0.52589655 0.47638986 0.1182292 -0.67283726 -0.013295641 -0.11351803 0.16468796 0.5895949 0.8973455 0.118651 -0.1808838 0.55993336 0.087868325 -0.15025121 -0.3251346 0.19324467 -0.07140902 -0.25081465 0.17145255 0.059666567 0.055755388 0.1400341 0.37245223 0.04711174 0.14534652 0.15249662 -0.064822204 0.17476332 -0.20386325 -0.803716 0.3411819 0.22760886 0.038015712 0.113719925 -0.17208141 0.2842847 0.32977024 0.042478908 -0.1469953 -0.45897922 -0.034602035 -0.04319478 0.047142264 -0.08096537 0.05484993 -0.17454402 -0.11243154 -0.117481634 0.3011926 -0.14904413 0.059842966 0.2701655 0.2926302 0.04210018 -0.6887344 -0.40907335 0.23416595 -0.25108328 0.017573673 -0.015710458 0.14536814
got 0.4172612 -0.15371317 0.19944209 0.033857543 0.11219604 0.056511253 -0.42094168 0.34275025 0.15080215 0.29302362 -0.047129214 0.12282821 -0.20518404 0.36374217 -0.06947435 -0.027304938 -0.057876952 -0.15658592 -0.95719403 0.30091703 0.051006515 -0.3622958 -0.14438358 -0.33949637 -0.012066548 0.32709166 -0.13403516 1.0095516 0.412064 0.069754355 -0.29949176 -0.023109125 -0.010834959 -0.03711849 0.769709 0.08532535 0.12173508 -0.12284722 0.2168676 0.5886649 0.5222427 0.11050369 -0.71052915 -0.012751884 -0.1055496 0.18589723 0.6276471 0.95836186 0.14469774 -0.20426191 0.60182005 0.10044128 -0.16754985 -0.33949053 0.2292289 -0.07056859 -0.2691121 0.17851321 0.06899935 0.06069518 0.14033575 0.41418737 0.056466732 0.16659671 0.13836215 -0.068536684 0.1931594 -0.22449331 -0.85818744 0.36931297 0.24244136 0.04160709 0.11334929 -0.17441906 0.32089585 0.3667676 0.04357893 -0.15692373 -0.49898204 -0.03943836 -0.04058519 0.05175551 -0.082012944 0.07057136 -0.17142805 -0.11700986 -0.1248375 0.3097819 -0.15834697 0.06247184 0.2859134 0.31000543 0.050858147 -0.76233864 -0.4292966 0.2500882 -0.26521558 0.022606283 -0.010182049 0.14496243
there 0.42730206 -0.14904517 0.20175931 0.025981558 0.12016037 0.070073776 -0.42202777 0.351349 0.16074638 0.30128157 -0.049668014 0.1282667 -0.19664086 0.36238253 -0.061693646 -0.033982597 -0.057182983 -0.16385645 -0.95964766 0.30577955 0.054291483 -0.34644628 -0.15118638 -0.33720165 -0.028221313 0.32215855 -0.14236476 1.0234722 0.41414008 0.06993648 -0.3066714 -0.021945134 -0.012419688 -0.038641192 0.77309585 0.07730932 0.12225802 -0.11769549 0.22344528 0.5968728 0.5287593 0.12152718 -0.73847145 -0.0061671752 -0.10604698 0.18872859 0.6313214 0.9616363 0.13192746 -0.2038071 0.6153525 0.09372346 -0.17773145 -0.33897823 0.23356116 -0.0728227 -0.28388047 0.18203565 0.06841391 0.058057886 0.14245032 0.4156336 0.050730053 0.17520969 0.14199395 -0.07990349 0.21039583 -0.22364397 -0.8820126 0.37057492 0.25406137 0.0441327 0.12029736 -0.18764345 0.33119053 0.3815818 0.03541506 -0.16151157 -0.5043926 -0.03375581 -0.02328994 0.05013055 -0.08526495 0.07236816 -0.17556302 -0.10187428 -0.12608813 0.30486712 -0.17182527 0.056601588 0.299472 0.32106268 0.041630283 -0.77012944 -0.43211955 0.2570013 -0.27387226 0.0061823437 -0.020130036 0.13805154
he 0.4346294 -0.16934462 0.21521126 0.03530046 0.12708472 0.058221307 -0.4565595 0.36214215 0.1748183 0.3083714 -0.053014696 0.132791 -0.22303729 0.3916162 -0.0790443 -0.028845502 -0.06816415 -0.16860965 -1.0166782 0.32106715 0.05347633 -0.37316215 -0.15537755 -0.37859708 -0.025267618 0.33930388 -0.14338751 1.0778412 0.43645886 0.0830956 -0.30573452 -0.019091584 -0.021917641 -0.036146738 0.8146371 0.08074735 0.13438746 -0.12826607 0.24443795 0.62701917 0.5680869 0.12864047 -0.7614079 -0.004583614 -0.11644112 0.19807333 0.6683051 1.0277376 0.15425666 -0.21669325 0.6458934 0.10483365 -0.18355232 -0.3641934 0.24712111 -0.07506259 -0.28828332 0.20035556 0.07042844 0.07367607 0.15891321 0.4489188 0.05551161 0.17778833 0.15622446 -0.074169934 0.21670943 -0.23491691 -0.908045 0.38834065 0.2558511 0.041598868 0.11666263 -0.18106516 0.33575153 0.39463496 0.040536664 -0.177866 -0.5281237 -0.038761705 -0.03944309 0.052273437 -0.082869604 0.07143663 -0.17337933 -0.11948308 -0.12613028 0.330671 -0.17661816 0.071923085 0.30073306 0.32387805 0.042439222 -0.8283189 -0.45251256 0.26208362 -0.28715858 0.015259084 -0.011871867 0.14043322
was 0.4303467 -0.1605978 0.20992807 0.028072447 0.13108577 0.05900649 -0.43815178 0.3468846 0.15624984 0.29570386 -0.044374466 0.11853154 -0.20626283 0.37114468 -0.05919987 -0.037882052 -0.056252956 -0.15131965 -0.984439 0.30624574 0.046063557 -0.36911282 -0.15346499 -0.3364708 -0.022443395 0.33842123 -0.13901596 1.027606 0.43296248 0.076218136 -0.3051442 -0.026273161 -0.0076386756 -0.04390349 0.7740486 0.08719866 0.11592093 -0.12956913 0.21526213 0.59883165 0.54409504 0.124910496 -0.7290858 -0.0051948624 -0.12662451 0.1893123 0.6549004 0.9761564 0.14258958 -0.20687419 0.6183818 0.095966674 -0.18125898 -0.35762334 0.2377907 -0.075220056 -0.28478447 0.1815718 0.06475558 0.06418443 0.14063242 0.41365573 0.047196027 0.16347098 0.13727151 -0.079325385 0.20105661 -0.22952406 -0.87939125 0.3753535 0.25318673 0.04826483 0.12136409 -0.17621215 0.32188356 0.36652684 0.035445742 -0.17294751 -0.51477015 -0.037470333 -0.029980825 0.050607733 -0.09165097 0.06345253 -0.18504325 -0.12288066 -0.1261158 0.3176575 -0.1678357 0.0686267 0.29924825 0.32393977 0.064549506 -0.77124596 -0.4341958 0.24378881 -0.2792001 0.017877871 -0.0122143375 0.14475995
come 0.37984046 -0.13739026 0.1687854 0.023640169 0.102325484 0.05238561 -0.38376862 0.31052223 0.13960639 0.26637438 -0.050784864 0.11478836 -0.18015888 0.31483456 -0.059538905 -0.0066446415 -0.057001173 -0.14330441 -0.8685678 0.28233123 0.029332902 -0.3355951 -0.13591927 -0.31778383 0.0023914285 0.31165475 -0.1352027 0.93164694 0.39054048 0.076352015 -0.27304593 -0.031908546 -0.017561078 -0.03668557 0.70946556 0.08225166 0.105651855 -0.09874052 0.20824316 0.5485589 0.48206097 0.11359572 -0.6680639 -0.0136481915 -0.09868853 0.14942989 0.58753455 0.8939684 0.11963732 -0.18265466 0.5556377 0.097773194 -0.16104218 -0.30705005 0.1906147 -0.072427176 -0.24732687 0.18095219 0.053396065 0.04826238 0.14102171 0.38559905 0.04595462 0.16244856 0.14308749 -0.069440186 0.17456357 -0.21505848 -0.7998709 0.34976122 0.22294226 0.033879157 0.104964614 -0.14924368 0.294547 0.3388335 0.04539308 -0.13455854 -0.45203337 -0.031726185 -0.040248103 0.04476999 -0.05950804 0.07385351 -0.1649696 -0.10341265 -0.11900913 0.28427038 -0.1428693 0.051166777 0.26474422 0.29540038 0.024866298 -0.72095644 -0.3933342 0.2468369 -0.24503896 0.016780632 -0.008160895 0.14973035
its 0.47852013 -0.17002364 0.23290248 0.03373201 0.13734725 0.05021392 -0.48232734 0.38238394 0.1808268 0.33920324 -0.055844173 0.12622637 -0.23279448 0.42076814 -0.08345988 -0.042761188 -0.057295244 -0.17403463 -1.0803795 0.34162867 0.06416124 -0.39754888 -0.17050089 -0.3725926 -0.025472928 0.3690668 -0.14871672 1.1363928 0.47975183 0.075530596 -0.3246081 -0.030483834 -0.010682846 -0.039617546 0.8550602 0.098309755 0.1345026 -0.13937753 0.2515712 0.6722425 0.5781668 0.12054881 -0.80160713 -0.010221559 -0.12566991 0.21228075 0.709636 1.074242 0.16735972 -0.22079167 0.6787122 0.10693643 -0.19641921 -0.38218537 0.26150855 -0.08836791 -0.3127443 0.18716659 0.07491849 0.076002814 0.1650461 0.45979095 0.07131972 0.19465485 0.15271068 -0.090248324 0.21570887 -0.24601142 -0.9682401 0.4030773 0.27361917 0.035183314 0.11417483 -0.19171143 0.3546122 0.40906703 0.05505057 -0.18955511 -0.57023996 -0.0402465 -0.039945833 0.052378736 -0.09345383 0.085161075 -0.19316044 -0.13198236 -0.14954947 0.33228078 -0.18775722 0.078897476 0.33101267 0.34679925 0.049541377 -0.8495371 -0.4774176 0.2700722 -0.30370328 0.023655182 -0.008737758 0.15955164
time 0.4041516 -0.13606486 0.18991923 0.036393005 0.11593179 0.0420724 -0.41457108 0.32999748 0.158674 0.28056684 -0.030191911 0.122141644 -0.19481139 0.3498809 -0.062247712 -0.031390198 -0.059776686 -0.15665947 -0.9146669 0.29838926 0.045265596 -0.33785352 -0.14789389 -0.3263211 -0.030370498 0.30188295 -0.14256243 0.96291083 0.39865598 0.07509356 -0.28504866 -0.027528182 -0.0020688586 -0.038682483 0.7415676 0.083113804 0.10767306 -0.12028289 0.2186641 0.56228244 0.50413704 0.10204473 -0.6971353 -0.0043294984 -0.10351069 0.17154808 0.60805273 0.92837626 0.13018723 -0.19674416 0.584901 0.0938862 -0.16954073 -0.332418 0.22450866 -0.07458152 -0.26807046 0.16639411 0.061903607 0.056125663 0.13512011 0.40341213 0.055534918 0.16832021 0.1270294 -0.07716502 0.18575428 -0.21958953 -0.83472687 0.34284556 0.24631892 0.042555302 0.1144485 -0.17214482 0.30837214 0.36539796 0.044736013 -0.14973108 -0.47840148 -0.036446717 -0.02721755 0.05123542 -0.07845824 0.07070721 -0.16649824 -0.11037538 -0.11265303 0.28876227 -0.1606525 0.06541482 0.27229366 0.2931794 0.045559555 -0.7382331 -0.4053313 0.24114235 -0.26191485 0.021778984 -0.019221613 0.133566
only 0.44743764 -0.17886603 0.29545197 0.038602818 0.15572152 0.029539129 -0.47494385 0.39463148 0.14711906 0.3611971 -0.09123878 0.10430008 -0.2631504 0.40176663 -0.096954204 -0.06638808 -0.06567392 -0.15256107 -1.0960653 0.32021013 0.05606479 -0.37616405 -0.15638636 -0.3408041 -0.023914577 0.35393867 -0.1066238 1.1261234 0.47829023 0.06126793 -0.32596827 -0.03595806 -0.010572192 -0.03634978 0.8314933 0.09381451 0.1413974 -0.12576915 0.26035413 0.66363114 0.5629275 0.10808438 -0.8323112 -0.012730957 -0.11399011 0.22364354 0.6907246 1.0939417 0.16302396 -0.179076 0.69720566 0.08603603 -0.19278926 -0.4249882 0.26565203 -0.09878116 -0.33856735 0.14451112 0.10713563 0.114158124 0.17096356 0.39906356 0.108559124 0.17607154 0.16592018 -0.07306939 0.24273452 -0.2628048 -0.9745099 0.38751593 0.2282244 0.018039005 0.07876591 -0.20908031 0.34805363 0.43959457 0.09264242 -0.19982801 -0.58657956 -0.033535138 -0.056130383 0.08019651 -0.12354457 0.08401098 -0.19823512 -0.13402033 -0.15819149 0.32232663 -0.18597782 0.07589953 0.33270535 0.29554456 0.06524829 -0.77504396 -0.46393108 0.25891575 -0.29962683 0.050684545 -0.01252359 0.15421969
love 0.37978575 -0.13084409 0.16858484 0.017661849 0.102037355 0.07011436 -0.3969104 0.30640352 0.14674912 0.26487848 -0.025140092 0.13148306 -0.1500806 0.32195172 -0.028828535 -0.015037732 -0.04885315 -0.15706721 -0.8511092 0.28317302 0.04670193 -0.32752463 -0.14737591 -0.3095586 -0.017038675 0.2899604 -0.15369119 0.9122923 0.3826442 0.09172016 -0.26304278 -0.034166258 -0.0006992998 -0.027771212 0.6895504 0.086864226 0.10071637 -0.10794732 0.17899735 0.52057034 0.4785347 0.12217833 -0.65095484 -0.0019762 -0.11164507 0.17599191 0.5781715 0.8620206 0.12044592 -0.18865824 0.54019177 0.0915925 -0.16405933 -0.3098807 0.20524986 -0.05886165 -0.2534971 0.17588611 0.053542994 0.043165524 0.14028232 0.4008009 0.047489174 0.1565612 0.12094043 -0.073545836 0.16987222 -0.19747585 -0.77732104 0.32897112 0.23336908 0.051001143 0.10964099 -0.16341317 0.2887371 0.3309897 0.031507004 -0.15340745 -0.43581262 -0.025259867 -0.008088523 0.024427297 -0.06804597 0.05463598 -0.16970812 -0.09037064 -0.114657775 0.290646 -0.1549007 0.042762876 0.26996908 0.30151314 0.055172645 -0.697909 -0.38894248 0.22843345 -0.23191932 0.01910076 -0.010451586 0.13068475
send 0.37275544 -0.13918683 0.2445352 0.022681791 0.12986279 0.0016810908 -0.36796334 0.3008923 0.12591131 0.2986621 -0.08381739 0.082063444 -0.18896247 0.3200958 -0.07909716 -0.059389368 -0.07219003 -0.12019449 -0.87266177 0.23929855 0.026820727 -0.3042415 -0.1370057 -0.26758417 -0.03363941 0.28083044 -0.07633369 0.88841474 0.38764772 0.05461072 -0.25272155 -0.039641906 0.0008680057 -0.033104155 0.66606146 0.08773763 0.09928589 -0.09926222 0.2111568 0.5294709 0.42612705 0.09351019 -0.66972053 0.007307383 -0.09852163 0.19867931 0.5602362 0.8852294 0.14949432 -0.12466453 0.5472883 0.07622254 -0.12965125 -0.34687176 0.20826909 -0.057680413 -0.2817789 0.10597089 0.095261544 0.0774615 0.13982269 0.29701722 0.091813155 0.14540651 0.12179721 -0.05907931 0.20100364 -0.20787954 -0.77612936 0.31882137 0.17435831 0.0062296884 0.06583656 -0.16424905 0.28667727 0.35367265 0.06629765 -0.16127835 -0.44597518 -0.035222646 -0.036636002 0.06389911 -0.0889478 0.077438846 -0.15536237 -0.11190147 -0.13681275 0.25893515 -0.14873901 0.05203742 0.2648634 0.23329931 0.07071028 -0.6125532 -0.36180627 0.19045912 -0.22966278 0.03169857 -0.031310108 0.1343304
text 0.401134 -0.15061739 0.2873545 0.02099356 0.14472677 0.0053268555 -0.39743832 0.32906982 0.11735988 0.32761446 -0.08060097 0.082604624 -0.21398059 0.33097497 -0.09998219 -0.060958695 -0.067034 -0.12565362 -0.9430107 0.25067145 0.029480094 -0.30702943 -0.14006506 -0.26836687 -0.0074187675 0.30254698 -0.0707832 0.95430964 0.41814217 0.06349615 -0.25652266 -0.029955393 0.010937161 -0.044996474 0.70827144 0.08527801 0.11412839 -0.09994939 0.22691317 0.5602347 0.45201916 0.09241725 -0.7153294 0.006222243 -0.10998031 0.2051787 0.5950277 0.94440484 0.14971304 -0.14296564 0.5941734 0.07442675 -0.1343588 -0.38166764 0.2215814 -0.084594026 -0.287822 0.0990961 0.09736196 0.09869726 0.13717832 0.32067603 0.110359676 0.15715316 0.13704509 -0.04726772 0.21301728 -0.21410473 -0.8240425 0.3323522 0.18764976 0.013396685 0.064162366 -0.18788005 0.30454388 0.37627396 0.077055365 -0.17240994 -0.48542196 -0.03450169 -0.033481974 0.06431456 -0.09333268 0.06582259 -0.16746016 -0.12300478 -0.15479457 0.27717507 -0.15648495 0.05310285 0.28566113 0.22384728 0.07040492 -0.63011044 -0.40321946 0.21380296 -0.24895243 0.031496584 -0.025528442 0.146805
want 0.3681534 -0.13261002 0.15192415 0.023550095 0.094183065 0.06894094 -0.3559797 0.2935536 0.13126417 0.2589281 -0.030570872 0.12732834 -0.14114249 0.30440944 -0.030430116 -0.0045240023 -0.05205454 -0.13885017 -0.8232414 0.27343115 0.031630736 -0.3053375 -0.12281617 -0.3183841 0.0036332496 0.2815871 -0.1445859 0.87433 0.36808193 0.07374701 -0.25617728 -0.013725968 -0.007933548 -0.027616424 0.66450965 0.087809995 0.091965556 -0.09981915 0.17134787 0.5035497 0.44865945 0.12363033 -0.6194951 -0.00694489 -0.10612001 0.15117875 0.5567396 0.83863956 0.11277419 -0.19332959 0.5177439 0.11083398 -0.14444286 -0.2939584 0.18587087 -0.044086806 -0.23738526 0.18579942 0.052819263 0.038696602 0.14101978 0.37681866 0.033526227 0.15766113 0.12714761 -0.073222764 0.17796454 -0.18839338 -0.73942566 0.3302001 0.2074271 0.05385707 0.10514211 -0.16442962 0.27850237 0.30464694 0.013653543 -0.11848531 -0.40686125 -0.039186623 -0.002270898 0.026395742 -0.044879705 0.06083214 -0.15656926 -0.06620913 -0.1221785 0.28399405 -0.16475874 0.03702935 0.25248176 0.30062562 0.04750542 -0.6906187 -0.3797653 0.25336045 -0.22303678 -0.002290192 -0.026961798 0.1441132
p 0.44224957 -0.19755046 0.37768254 0.047472205 0.1816821 -0.025151609 -0.48280805 0.4105414 0.12425694 0.40885127 -0.14963149 0.07156835 -0.30012274 0.39721882 -0.1399349 -0.12717241 -0.07559463 -0.13437408 -1.1321166 0.30123067 0.033945102 -0.36304128 -0.17668985 -0.30659816 -0.037070155 0.3448894 -0.04255189 1.1317878 0.49400327 0.036103565 -0.29884765 -0.0528682 -0.0024008558 -0.026977101 0.8352308 0.096995294 0.14337476 -0.11360441 0.27493656 0.6783783 0.52750266 0.09850617 -0.8542894 0.008614752 -0.10981237 0.26232338 0.6860677 1.1325076 0.18325678 -0.11325608 0.7348419 0.056875724 -0.17150065 -0.46979767 0.2752537 -0.09569717 -0.38643318 0.08988321 0.13532977 0.15131025 0.18080482 0.34328574 0.17464522 0.18720178 0.17631607 -0.03905605 0.26223016 -0.2720484 -0.9893953 0.3746544 0.18733925 -0.005861718 0.03858906 -0.21114303 0.35855034 0.48950118 0.1429744 -0.23412545 -0.6124854 -0.03358291 -0.05527081 0.10620581 -0.15711649 0.080096796 -0.21366973 -0.16399843 -0.1987706 0.2914021 -0.18824352 0.079511 0.34790877 0.22280978 0.09413553 -0.7012166 -0.4496965 0.21684936 -0.2981071 0.092612945 -0.037412535 0.17896996
txt 0.44563612 -0.18842097 0.37403992 0.04164033 0.19076739 -0.02035202 -0.47345266 0.38440606 0.13286614 0.38677657 -0.12272344 0.06805374 -0.28621766 0.38131934 -0.13472773 -0.112895474 -0.07324059 -0.14131014 -1.1029825 0.28363532 0.038646456 -0.33328047 -0.16399388 -0.27891186 -0.041027393 0.33279437 -0.047397304 1.0940645 0.47866413 0.049904395 -0.290455 -0.03822753 -0.0067809997 -0.03760845 0.81599414 0.09350856 0.13123226 -0.120932035 0.27492538 0.6593011 0.49738696 0.09373355 -0.8151685 0.008973682 -0.122652546 0.25293532 0.66161335 1.0969073 0.1919508 -0.11719144 0.6966456 0.06934665 -0.16590108 -0.46220344 0.28122434 -0.082568884 -0.36964676 0.082602516 0.13030367 0.12498808 0.16317159 0.32827014 0.15165988 0.18267338 0.1524891 -0.044930454 0.26485208 -0.25332743 -0.9522135 0.37603465 0.17864439 -0.0023796067 0.04355123 -0.20677611 0.34757373 0.44809234 0.12213454 -0.2318425 -0.57752514 -0.03638336 -0.049817774 0.085617214 -0.12967446 0.08284629 -0.19454736 -0.1572812 -0.18106641 0.30285984 -0.1769489 0.075049005 0.34816244 0.23418505 0.08507022 -0.66208196 -0.44957334 0.20089342 -0.29454783 0.062060006 -0.02364728 0.14753996
as 0.45092404 -0.16569154 0.22739626 0.028034754 0.13707462 0.06513943 -0.44395393 0.36081088 0.15772739 0.32632935 -0.051599 0.12546155 -0.20507644 0.38755867 -0.08399012 -0.052324235 -0.066754065 -0.1679783 -1.0192008 0.30867395 0.049733814 -0.37862867 -0.15911017 -0.34430298 -0.02673504 0.3421731 -0.13867728 1.061569 0.44158176 0.075508155 -0.31295383 -0.021833073 -0.0066333706 -0.039585106 0.79594094 0.08706117 0.12761623 -0.1413597 0.23282003 0.62160236 0.53667116 0.12545028 -0.77113825 0.0024221423 -0.114032604 0.2132978 0.6696512 1.0192555 0.150812 -0.2064586 0.6379773 0.08227267 -0.17104205 -0.3642781 0.25936273 -0.07235979 -0.2922448 0.16146292 0.08375652 0.08404713 0.16036564 0.426218 0.07395712 0.16378091 0.14457478 -0.06894261 0.21768712 -0.22029813 -0.9021499 0.36664975 0.24943405 0.04369886 0.11755788 -0.1833405 0.3417574 0.39107457 0.049545266 -0.18255611 -0.53778785 -0.038370963 -0.038122922 0.0543067 -0.09950947 0.065877154 -0.18841586 -0.13323918 -0.14035134 0.32357106 -0.18363144 0.06363907 0.30954114 0.31163728 0.06669832 -0.76943636 -0.4400338 0.23865686 -0.28947 0.016816841 -0.019924372 0.1387122
one 0.39894348 -0.1446975 0.2055395 0.031401567 0.12336712 0.046944737 -0.41720384 0.3319053 0.14889166 0.28665602 -0.044305395 0.11139852 -0.20581888 0.36466527 -0.06620606 -0.042241126 -0.054614946 -0.15191844 -0.925388 0.28495836 0.050033107 -0.34133825 -0.14981243 -0.3216987 -0.02638717 0.30704647 -0.1324033 0.9793081 0.4117786 0.06612545 -0.28629345 -0.021069102 -0.009305865 -0.040005393 0.7382961 0.07889256 0.11114311 -0.11759557 0.21990827 0.56883246 0.50434387 0.11226794 -0.70015156 -0.005322527 -0.10404551 0.18526001 0.60348445 0.9350808 0.13270582 -0.18471211 0.5865376 0.08165343 -0.16974567 -0.33572093 0.23409595 -0.06932109 -0.2766685 0.15187135 0.06676358 0.07262074 0.14235115 0.38772428 0.05655732 0.16520318 0.13501632 -0.07009499 0.1952722 -0.21926676 -0.8206987 0.34782642 0.23363677 0.029222459 0.100449905 -0.16617548 0.31086144 0.3635268 0.042466298 -0.16265772 -0.48857102 -0.03340436 -0.028843414 0.04044205 -0.086515 0.07178864 -0.16947179 -0.10630781 -0.12589836 0.28864112 -0.16447589 0.056206103 0.2851339 0.28276542 0.0528713 -0.72366124 -0.39932045 0.22957008 -0.26118806 0.021689285 -0.009895116 0.1361113
n 0.5048654 -0.18346292 0.27335122 0.055452514 0.15794887 0.04468934 -0.53032607 0.4116796 0.18742865 0.3677068 -0.08689275 0.123070635 -0.28301457 0.44284937 -0.095947124 -0.068330735 -0.081611924 -0.19013435 -1.1850837 0.3750536 0.05731484 -0.42869186 -0.18310757 -0.4134508 -0.02612757 0.4126561 -0.16117181 1.2556344 0.53283453 0.07997171 -0.35396162 -0.0350903 -0.032375913 -0.044785645 0.95477694 0.088192955 0.1441448 -0.15050723 0.28352582 0.7475941 0.64383525 0.14176644 -0.89801073 -0.017819688 -0.123753 0.21923472 0.76881695 1.1975802 0.18625924 -0.23516354 0.78186375 0.10866502 -0.22136977 -0.43326896 0.29857245 -0.093526736 -0.35348475 0.18973611 0.099056445 0.09596637 0.18475586 0.5016162 0.0974667 0.21934205 0.16672547 -0.09033521 0.24684928 -0.27230984 -1.0592989 0.44994324 0.28538698 0.03631944 0.11608503 -0.20659435 0.39161372 0.46841174 0.0652565 -0.22123931 -0.6462191 -0.049227282 -0.06648193 0.076385655 -0.12531711 0.08721679 -0.22047542 -0.15283634 -0.16542631 0.3652256 -0.19153722 0.07721888 0.35576156 0.3489915 0.05705758 -0.918551 -0.5180735 0.28803188 -0.3403236 0.052709445 -0.0016858492 0.17208332
going 0.3486742 -0.13352731 0.1726515 0.020673443 0.11200473 0.047717467 -0.36191183 0.29180083 0.13974796 0.2617429 -0.04475962 0.10059468 -0.17849739 0.30362132 -0.059277683 -0.022960892 -0.054345828 -0.14229913 -0.8199192 0.26374274 0.04087734 -0.3153385 -0.11338158 -0.29555026 -0.0058942023 0.2848557 -0.12034845 0.8814186 0.35510683 0.056045175 -0.25826305 -0.032631416 -0.007169911 -0.043721396 0.65925527 0.069616444 0.100008965 -0.095606185 0.1914207 0.5136384 0.45308954 0.10181578 -0.62583625 -0.0062926197 -0.10483245 0.1541687 0.5479688 0.85012966 0.10898805 -0.16927324 0.5368633 0.082734056 -0.15430063 -0.2939734 0.19622517 -0.07115157 -0.23582973 0.15129676 0.054979686 0.057223454 0.13388446 0.35690847 0.05440122 0.14619945 0.12583163 -0.06804526 0.18272382 -0.1981324 -0.75666714 0.32366303 0.20969509 0.023752425 0.09626318 -0.14808434 0.27292672 0.32140896 0.039655406 -0.1470583 -0.4281934 -0.02730434 -0.031176483 0.037095044 -0.06963204 0.05575538 -0.16463062 -0.09988163 -0.12068242 0.26322067 -0.1386417 0.058629774 0.25571737 0.2680876 0.029661927 -0.6680092 -0.37448284 0.22366792 -0.22446483 0.023130842 -0.014322641 0.11859549
by 0.48204583 -0.17378399 0.26661193 0.035559267 0.14648339 0.04973185 -0.48050234 0.39495024 0.16139153 0.3587555 -0.0758703 0.1264657 -0.2446572 0.4075005 -0.095074534 -0.059404865 -0.06633879 -0.1655169 -1.0978445 0.33471006 0.044374626 -0.3890358 -0.16236886 -0.355132 -0.02385257 0.36603346 -0.13477911 1.1535711 0.48092228 0.069112144 -0.32497382 -0.040602542 -0.011145799 -0.04853847 0.8660049 0.08468919 0.12851775 -0.13807371 0.2599528 0.6630772 0.57727873 0.1270883 -0.8373351 -0.00016997238 -0.1195815 0.22195798 0.7054546 1.1031339 0.15734637 -0.21004893 0.6956052 0.090355866 -0.1883232 -0.4048304 0.26387444 -0.09656224 -0.3235433 0.16589013 0.084678814 0.09063969 0.16459742 0.43537155 0.0906817 0.1886838 0.1636106 -0.08264124 0.23673806 -0.24955603 -0.9784516 0.4054899 0.26140377 0.03465788 0.11064604 -0.20835096 0.3612385 0.42280945 0.06550118 -0.1881781 -0.5798074 -0.041235466 -0.035532717 0.061393138 -0.11033497 0.073294505 -0.19449556 -0.13052478 -0.15132537 0.33245832 -0.18558319 0.06402029 0.33340442 0.3233394 0.05738914 -0.8301815 -0.4709245 0.26758125 -0.3011546 0.027130479 -0.017727295 0.15145265
r 0.45370826 -0.15888542 0.23657946 0.04170087 0.14824331 0.042608026 -0.46822563 0.36364517 0.17774202 0.32701465 -0.060785633 0.11787516 -0.23278026 0.38538486 -0.07639699 -0.036466226 -0.07941857 -0.16476992 -1.035539 0.32577035 0.061550293 -0.3649373 -0.17067742 -0.36987534 -0.022976534 0.35038418 -0.15312178 1.0967603 0.4637109 0.085458115 -0.32334977 -0.031263575 -0.005312675 -0.045187984 0.8473398 0.094969146 0.13231264 -0.12835026 0.24540046 0.6531593 0.56482035 0.12540229 -0.8006724 -0.0035884518 -0.12396909 0.19609106 0.6960294 1.0682263 0.15453896 -0.21178919 0.6838653 0.09430188 -0.18407674 -0.3743299 0.25822493 -0.07844249 -0.31772953 0.19078818 0.08440304 0.06800757 0.16210914 0.45339632 0.07457188 0.19942798 0.16002366 -0.08749925 0.20937036 -0.24719904 -0.9480337 0.3961584 0.26222318 0.029820934 0.10267376 -0.1731708 0.35126534 0.425536 0.057407256 -0.18414567 -0.57021636 -0.046958763 -0.04741298 0.054645464 -0.105788276 0.079065695 -0.19713254 -0.14487922 -0.13645335 0.32798222 -0.18111676 0.073748104 0.30534637 0.3193927 0.05847367 -0.8367187 -0.47032738 0.25289086 -0.29546303 0.042925797 0.002587237 0.15843359
need 0.35667452 -0.12846093 0.15921305 0.024063636 0.09854545 0.064394824 -0.3647214 0.2908712 0.1340769 0.25691864 -0.034033418 0.109380186 -0.15577337 0.3009821 -0.03965754 -0.005243147 -0.055647388 -0.14090611 -0.81823814 0.2595556 0.03415995 -0.3041423 -0.12260523 -0.30000642 0.0005492124 0.27496627 -0.12849045 0.8704835 0.36386612 0.072578184 -0.25685883 -0.015752494 -0.008943189 -0.033345103 0.65150887 0.0785564 0.09644342 -0.098685265 0.17747788 0.5068028 0.44176537 0.111600675 -0.61853594 -0.013233706 -0.099687524 0.15630552 0.5449806 0.835168 0.11697469 -0.18017903 0.51751566 0.09199769 -0.15024921 -0.29749522 0.18413758 -0.056809183 -0.24817975 0.1677013 0.059165165 0.04799236 0.13266967 0.35693538 0.038456187 0.14545661 0.12096546 -0.061531562 0.17683993 -0.19828403 -0.74153495 0.3178492 0.2047122 0.04019568 0.10356866 -0.15133587 0.27775759 0.3086774 0.034701597 -0.13362226 -0.41012287 -0.031958763 -0.023606995 0.035946116 -0.056949575 0.06778289 -0.15992872 -0.08596919 -0.117899634 0.27164268 -0.14375986 0.04917482 0.25757584 0.28502977 0.041597582 -0.6626417 -0.3698773 0.22921166 -0.22445288 0.0050693788 -0.022497665 0.13654725
don 0.33391353 -0.11374904 0.11407066 0.055212595 0.052710727 0.10416179 -0.322225 0.25689575 0.13424388 0.22476724 -0.0399866 0.12325299 -0.10437634 0.297459 -0.013810874 0.019543467 -0.039478313 -0.15793456 -0.7677149 0.23441067 0.024087232 -0.2555406 -0.13350447 -0.32390398 -0.006901857 0.27256045 -0.11248459 0.8059536 0.36806706 0.07253812 -0.24849288 -0.015800191 -0.03938946 -0.006838262 0.60499954 0.059849866 0.07406927 -0.08203927 0.15272868 0.48455453 0.4211427 0.14536488 -0.58555335 -0.032184094 -0.09995908 0.14164189 0.5198824 0.78688514 0.10394121 -0.1969936 0.50902086 0.095389865 -0.12619725 -0.27889574 0.19390777 -0.0071033016 -0.2509461 0.1961683 0.037952874 0.032018777 0.15180331 0.38310608 0.02143938 0.14603654 0.1454574 -0.055096243 0.18444234 -0.20090948 -0.6971223 0.3222502 0.19888024 0.07045355 0.08356159 -0.16190153 0.26691043 0.257301 0.011396801 -0.11104453 -0.35905537 -0.045977738 0.010025313 0.045793813 -0.07320567 0.024565196 -0.1578535 -0.05841755 -0.13162343 0.27358663 -0.1715774 0.053968195 0.21177924 0.2836238 0.017013974 -0.64782137 -0.39515153 0.22132711 -0.19841008 -0.00072235736 -0.015949432 0.13403966
home 0.35173383 -0.12840906 0.16981293 0.029904565 0.098792925 0.043457884 -0.36163953 0.30835143 0.12867193 0.2611753 -0.050304644 0.10205607 -0.1824228 0.31129903 -0.057935353 -0.031581957 -0.048211403 -0.13054213 -0.8310042 0.26548162 0.034518514 -0.3149578 -0.11694768 -0.29063132 -0.013395956 0.29831025 -0.112793 0.89452934 0.36629075 0.06410947 -0.27026242 -0.030284874 -0.0143633615 -0.03361702 0.6729817 0.06516652 0.096278325 -0.102037735 0.19071634 0.52015615 0.46459296 0.10901952 -0.6431626 -0.015055305 -0.099222176 0.15447827 0.5518319 0.8614526 0.104210764 -0.17584914 0.53994566 0.07615308 -0.152496 -0.30310357 0.19169278 -0.06465624 -0.23517379 0.1599246 0.050250597 0.05491128 0.13903934 0.36736846 0.052101385 0.14931878 0.12929587 -0.060168948 0.18014215 -0.20634659 -0.7635822 0.31897384 0.21756479 0.031059965 0.09080782 -0.15718177 0.2749291 0.31971398 0.037895612 -0.13703346 -0.44740638 -0.029199576 -0.045120843 0.037545312 -0.07750333 0.057943247 -0.16416113 -0.10294936 -0.11974786 0.2752583 -0.14038096 0.05323691 0.2531758 0.2766869 0.032742284 -0.68457204 -0.3794268 0.23340288 -0.23014429 0.029744074 -0.009369513 0.12701908
about 0.41770986 -0.14656067 0.19635493 0.034311935 0.12563626 0.056079783 -0.41597775 0.3396846 0.16493732 0.2967991 -0.047366146 0.12746374 -0.19326393 0.36757797 -0.05430143 -0.030414509 -0.06557134 -0.15416473 -0.94843185 0.303273 0.050862893 -0.3504187 -0.14842243 -0.34158975 -0.019394126 0.319667 -0.15057129 0.9928588 0.4172051 0.077099316 -0.28913784 -0.018681502 0.00038237142 -0.029607225 0.74952507 0.086578704 0.11611352 -0.11479879 0.21583158 0.5797435 0.5202617 0.12271386 -0.70891774 -0.00553593 -0.11504755 0.18710509 0.6238267 0.951995 0.1456242 -0.20050386 0.5945653 0.100613676 -0.17079419 -0.33577597 0.2202731 -0.0638973 -0.27582335 0.1743993 0.06658502 0.062100053 0.1509842 0.4102057 0.057566885 0.16619626 0.13806719 -0.08403031 0.19202417 -0.21766183 -0.8569217 0.3602559 0.2472892 0.044669133 0.114887804 -0.16839696 0.31313306 0.3675464 0.030221306 -0.15444905 -0.48090252 -0.04430836 -0.015845414 0.045276064 -0.07329209 0.06826837 -0.17335065 -0.09916484 -0.12945539 0.29816937 -0.1803404 0.058334418 0.28121668 0.30778065 0.06092039 -0.7603425 -0.4257678 0.24873012 -0.2569519 0.015982805 -0.01275064 0.14009422
she 0.44092184 -0.15829758 0.21960358 0.03737766 0.13934526 0.057431452 -0.4522832 0.36364466 0.1715973 0.30824533 -0.061545268 0.1201686 -0.22042316 0.3958492 -0.07597218 -0.02762561 -0.067485325 -0.16427878 -1.0085851 0.32190564 0.05472972 -0.37108526 -0.169178 -0.37021542 -0.023668801 0.33949438 -0.14506416 1.0781361 0.44432262 0.08063399 -0.3027984 -0.023288311 -0.015450314 -0.04256064 0.8164147 0.08666482 0.12049298 -0.12369401 0.2355945 0.6214237 0.55910146 0.12309588 -0.7684425 -0.0054795565 -0.114500746 0.19355397 0.66222596 1.022731 0.1501464 -0.21222359 0.64584845 0.10174568 -0.1862965 -0.3663818 0.24231564 -0.08534013 -0.3029452 0.18251882 0.07171659 0.061346292 0.15528773 0.4494716 0.059477992 0.1793717 0.14000034 -0.08442068 0.20631315 -0.23510167 -0.90742666 0.38605672 0.260858 0.029931875 0.121160366 -0.17339893 0.34423125 0.40075484 0.050370656 -0.18166423 -0.53102034 -0.045066886 -0.039147004 0.05847579 -0.08285115 0.082377754 -0.17048073 -0.118710004 -0.13099456 0.3246279 -0.16808154 0.06305891 0.3035302 0.3330412 0.037565768 -0.8142081 -0.43970346 0.2550526 -0.29571685 0.020377902 -0.0065373806 0.13938801
stop 0.4398608 -0.17358166 0.34882942 0.046437006 0.169687 -0.015767206 -0.4734273 0.37455437 0.1383763 0.36537102 -0.12861496 0.08047418 -0.26873827 0.37517208 -0.12014761 -0.09298046 -0.08220735 -0.14592732 -1.0814667 0.28569353 0.03970606 -0.33505094 -0.16303188 -0.2897001 -0.030873418 0.32390496 -0.04776939 1.0765936 0.46288708 0.06198851 -0.29750782 -0.050697003 -0.0040460257 -0.030890195 0.80386895 0.10393727 0.13919252 -0.111052014 0.25975904 0.64379543 0.49975672 0.09929135 -0.8057446 0.012672668 -0.10318164 0.24659431 0.6583639 1.0774647 0.18028098 -0.11712381 0.6930142 0.060088336 -0.16449274 -0.43252325 0.27081108 -0.0847361 -0.36631796 0.10579109 0.12831227 0.11838693 0.16978514 0.3295621 0.15092374 0.17219578 0.15324308 -0.042473283 0.26085144 -0.25030848 -0.929655 0.37668884 0.18803045 0.0007720115 0.058653466 -0.19723308 0.33667445 0.4482814 0.11434721 -0.21549048 -0.573207 -0.041617353 -0.05017672 0.08789386 -0.12740362 0.08357273 -0.18938892 -0.14108245 -0.18274851 0.28135523 -0.17784008 0.06973994 0.32234374 0.2390215 0.089671955 -0.6871948 -0.43331477 0.22040595 -0.28159356 0.070365116 -0.02592754 0.1628133
lor 0.41496238 -0.1630795 0.20670584 0.04510375 0.12579103 0.04855789 -0.4528388 0.3547006 0.15016814 0.30281785 -0.06877639 0.10240404 -0.23748155 0.38390362 -0.08387217 -0.02883508 -0.059102524 -0.15648712 -0.99014354 0.31162977 0.05782166 -0.36489487 -0.15324116 -0.3668588 -0.0146751385 0.35295126 -0.14765996 1.0600008 0.44844422 0.06209319 -0.31157404 -0.028717136 -0.036715552 -0.046190422 0.81388104 0.07107001 0.11872989 -0.12554619 0.2332415 0.628069 0.536341 0.10912101 -0.751639 -0.018922213 -0.113483705 0.16836594 0.642248 1.0158453 0.14162743 -0.202308 0.6597587 0.093284525 -0.19876927 -0.35845464 0.24365567 -0.08857293 -0.2971268 0.19153474 0.080189005 0.06166784 0.16367546 0.43425938 0.066624634 0.18854877 0.14120273 -0.084506705 0.19459781 -0.24283327 -0.89470834 0.37994868 0.24824376 0.03164601 0.0972924 -0.158023 0.33362713 0.38851765 0.06461981 -0.17944828 -0.54146343 -0.042595375 -0.06626498 0.048808206 -0.090003066 0.08612403 -0.18407872 -0.12851112 -0.12837157 0.30692288 -0.15277949 0.07281598 0.2959764 0.3009728 0.028403122 -0.8026048 -0.4414063 0.25262555 -0.2769765 0.041900188 -0.0025681094 0.16217473
k 0.41824707 -0.13118657 0.20033419 0.016038764 0.12859145 0.041313738 -0.39722425 0.3475505 0.13846336 0.30590463 -0.04547454 0.1305412 -0.21184495 0.34323868 -0.058720592 -0.0144912 -0.06431672 -0.13787222 -0.9196861 0.2972287 0.03329178 -0.35474792 -0.14867188 -0.3315156 -0.016353438 0.3323114 -0.13396634 0.986137 0.41702285 0.06366768 -0.3049626 -0.03937602 -0.01335423 -0.025934039 0.74711835 0.09152699 0.09240416 -0.12165995 0.22159773 0.59321195 0.5127988 0.097087465 -0.7173194 -0.002872 -0.118889906 0.17607184 0.6186451 0.94570965 0.11877907 -0.19385155 0.5979154 0.08318328 -0.15906413 -0.32907882 0.20113395 -0.08411112 -0.26947713 0.1741574 0.055623796 0.069579005 0.15473731 0.39436716 0.060198423 0.17673391 0.13159308 -0.08930077 0.17595214 -0.24512428 -0.8568453 0.34647867 0.23118953 0.025753474 0.08867953 -0.18565758 0.3194235 0.34883493 0.047276814 -0.16845131 -0.49975756 -0.042299673 -0.04524517 0.059194446 -0.060979813 0.08965541 -0.15094273 -0.10638959 -0.14946365 0.27520895 -0.17667784 0.051529627 0.28591704 0.30613723 0.044517092 -0.7535664 -0.4245672 0.27004552 -0.26200837 0.037605762 -0.0045158905 0.14675476
today 0.4307052 -0.15556903 0.21535791 0.027768692 0.12988898 0.04593855 -0.43457612 0.35365167 0.15517007 0.30839404 -0.05496131 0.11780873 -0.20758681 0.37180084 -0.075044595 -0.041652966 -0.06299779 -0.158557 -0.9866144 0.31023327 0.05030354 -0.3620855 -0.15346149 -0.34637535 -0.019682994 0.3436589 -0.1358056 1.0397192 0.44196728 0.07460136 -0.31033412 -0.037707344 -0.0094000455 -0.038524598 0.7859523 0.08700774 0.11925732 -0.11866996 0.2362326 0.6138883 0.53318566 0.12417821 -0.7527525 -0.0036596474 -0.1217003 0.19817536 0.64420164 1.0034072 0.13635567 -0.20174788 0.6390782 0.09444833 -0.17922665 -0.35744146 0.2435506 -0.07865956 -0.29588515 0.17223321 0.07937509 0.07721728 0.15888776 0.4201614 0.06182608 0.17735004 0.14484565 -0.07654674 0.20368472 -0.23797329 -0.88317156 0.37425202 0.24237202 0.028550228 0.11254648 -0.18290135 0.33420342 0.38580427 0.044455275 -0.17721654 -0.51858765 -0.031928934 -0.03697469 0.044639125 -0.090735614 0.07088086 -0.17915523 -0.11427001 -0.13606289 0.31201008 -0.17324899 0.06955908 0.30654553 0.30994493 0.053176753 -0.7795084 -0.437444 0.2513835 -0.2791611 0.023800615 -0.017807612 0.14520548
